{"learner":{"attributes":{"scikit_learn":"{\"_estimator_type\": \"classifier\"}"},"feature_names":[],"feature_types":[],"gradient_booster":{"model":{"cats":{"enc":[],"feature_segments":[],"sorted_idx":[]},"gbtree_model_param":{"num_parallel_tree":"1","num_trees":"200"},"iteration_indptr":[0,1,2,3,4,5,6,7,8,9,10,11,12,13,14,15,16,17,18,19,20,21,22,23,24,25,26,27,28,29,30,31,32,33,34,35,36,37,38,39,40,41,42,43,44,45,46,47,48,49,50,51,52,53,54,55,56,57,58,59,60,61,62,63,64,65,66,67,68,69,70,71,72,73,74,75,76,77,78,79,80,81,82,83,84,85,86,87,88,89,90,91,92,93,94,95,96,97,98,99,100,101,102,103,104,105,106,107,108,109,110,111,112,113,114,115,116,117,118,119,120,121,122,123,124,125,126,127,128,129,130,131,132,133,134,135,136,137,138,139,140,141,142,143,144,145,146,147,148,149,150,151,152,153,154,155,156,157,158,159,160,161,162,163,164,165,166,167,168,169,170,171,172,173,174,175,176,177,178,179,180,181,182,183,184,185,186,187,188,189,190,191,192,193,194,195,196,197,198,199,200],"tree_info":[0,0,0,0,0,0,0,0,0,0,0,0,0,0,0,0,0,0,0,0,0,0,0,0,0,0,0,0,0,0,0,0,0,0,0,0,0,0,0,0,0,0,0,0,0,0,0,0,0,0,0,0,0,0,0,0,0,0,0,0,0,0,0,0,0,0,0,0,0,0,0,0,0,0,0,0,0,0,0,0,0,0,0,0,0,0,0,0,0,0,0,0,0,0,0,0,0,0,0,0,0,0,0,0,0,0,0,0,0,0,0,0,0,0,0,0,0,0,0,0,0,0,0,0,0,0,0,0,0,0,0,0,0,0,0,0,0,0,0,0,0,0,0,0,0,0,0,0,0,0,0,0,0,0,0,0,0,0,0,0,0,0,0,0,0,0,0,0,0,0,0,0,0,0,0,0,0,0,0,0,0,0,0,0,0,0,0,0,0,0,0,0,0,0,0,0,0,0,0,0],"trees":[{"base_weights":[-3.811715E-2,-2.586608E0,7.477523E-2,-2.8412702E0,6.9130436E-2,5.5714287E-2,-1.4543286E-1],"categories":[],"categories_nodes":[],"categories_segments":[],"categories_sizes":[],"default_left":[0,0,0,0,0,0,0],"id":0,"left_children":[1,3,-1,5,-1,-1,-1],"loss_changes":[2.0887932E3,2.0687659E2,0E0,5.3619385E1,0E0,0E0,0E0],"parents":[2147483647,0,0,1,1,3,3],"right_children":[2,4,-1,6,-1,-1,-1],"split_conditions":[6E0,7.3E-1,7.477523E-2,5.3E1,6.9130436E-2,5.5714287E-2,-1.4543286E-1],"split_indices":[4,5,0,18,0,0,0],"split_type":[0,0,0,0,0,0,0],"sum_hessian":[5.324444E2,1.9977777E2,3.3266666E2,1.8799998E2,1.1777777E1,2.8888888E0,1.851111E2],"tree_param":{"num_deleted":"0","num_feature":"20","num_nodes":"7","size_leaf_vector":"1"}},{"base_weights":[1.1604207E-2,-2.5695672E0,1.4261221E0,-2.6603248E0,5.8992174E-2,-8.447916E-2,1.44597E0,-1.3565546E-1,-1.9197339E0,4.826766E-1,7.2994426E-2,-1.1277039E-1,-6.6555375E-1,-4.8852045E-2,5.893577E-2,-6.992335E-2,4.2392123E-2],"categories":[],"categories_nodes":[],"categories_segments":[],"categories_sizes":[],"default_left":[0,0,0,0,0,0,0,0,0,0,0,0,0,0,0,0,0],"id":1,"left_children":[1,3,5,7,-1,-1,9,-1,11,13,-1,-1,15,-1,-1,-1,-1],"loss_changes":[1.9321481E3,6.6888794E1,2.358319E1,1.9539795E0,0E0,0E0,3.8568726E0,0E0,5.070549E0,7.5929613E0,0E0,0E0,6.4148297E0,0E0,0E0,0E0,0E0],"parents":[2147483647,0,0,1,1,2,2,3,3,6,6,8,8,9,9,12,12],"right_children":[2,4,6,8,-1,-1,10,-1,12,14,-1,-1,16,-1,-1,-1,-1],"split_conditions":[7.936508E-2,7.3E-1,6.4E-1,6.4935066E-2,5.8992174E-2,-8.447916E-2,8.450704E-2,-1.3565546E-1,1.2407453E-2,1.475E-1,7.2994426E-2,-1.1277039E-1,6.7E-1,-4.8852045E-2,5.893577E-2,-6.992335E-2,4.2392123E-2],"split_indices":[6,5,5,6,0,0,6,0,0,9,0,0,5,0,0,0,0],"split_type":[0,0,0,0,0,0,0,0,0,0,0,0,0,0,0,0,0],"sum_hessian":[5.271906E2,1.8634218E2,3.4084842E2,1.8222182E2,4.120355E0,1.6250477E0,3.3922336E2,1.6761206E2,1.4609764E1,5.339745E0,3.338836E2,1.089537E1,3.7143946E0,1.593718E0,3.746027E0,2.5536463E0,1.1607482E0],"tree_param":{"num_deleted":"0","num_feature":"20","num_nodes":"17","size_leaf_vector":"1"}},{"base_weights":[1.4528077E-2,-2.3592055E0,1.3932265E0,-2.4489553E0,5.8779355E-2,-8.077964E-2,1.4132165E0,-1.23615816E-1,-1.272704E0,3.975059E-1,7.1359254E-2,-9.4300225E-2,-1.8704431E-4,-4.9246714E-2,9.505509E-1,5.3323872E-2,1.4811086E-2],"categories":[],"categories_nodes":[],"categories_segments":[],"categories_sizes":[],"default_left":[0,0,0,0,0,0,0,0,0,0,0,0,0,0,0,0,0],"id":2,"left_children":[1,3,5,7,-1,-1,9,-1,11,13,-1,-1,-1,-1,15,-1,-1],"loss_changes":[1.7188838E3,6.4100464E1,2.2266296E1,2.0339355E0,0E0,0E0,4.122986E0,0E0,4.454053E0,5.424699E0,0E0,0E0,0E0,0E0,4.0760517E-2,0E0,0E0],"parents":[2147483647,0,0,1,1,2,2,3,3,6,6,8,8,9,9,14,14],"right_children":[2,4,6,8,-1,-1,10,-1,12,14,-1,-1,-1,-1,16,-1,-1],"split_conditions":[7.936508E-2,7.3E-1,6.4E-1,7.3529415E-2,5.8779355E-2,-8.077964E-2,8.450704E-2,-1.23615816E-1,7.3545715E-3,4.9530447E-1,7.1359254E-2,-9.4300225E-2,-1.8704431E-4,-4.9246714E-2,4.662532E-2,5.3323872E-2,1.4811086E-2],"split_indices":[6,5,5,6,0,0,6,0,0,16,0,0,0,0,1,0,0],"split_type":[0,0,0,0,0,0,0,0,0,0,0,0,0,0,0,0,0],"sum_hessian":[5.2322046E2,1.9197755E2,3.312429E2,1.8752344E2,4.454117E0,1.6593766E0,3.2958353E2,1.8279124E2,4.732188E0,4.8707204E0,3.247128E2,2.8624742E0,1.869714E0,1.1686157E0,3.7021048E0,2.6098437E0,1.0922611E0],"tree_param":{"num_deleted":"0","num_feature":"20","num_nodes":"17","size_leaf_vector":"1"}},{"base_weights":[-1.9541541E-2,-2.2177122E0,1.3578036E0,-1.1446033E-1,5.638532E-2,-8.119416E-2,1.3806049E0,3.4703854E-1,6.986889E-2,-5.6183048E-2,9.7726446E-1,5.461895E-2,1.4419313E-2],"categories":[],"categories_nodes":[],"categories_segments":[],"categories_sizes":[],"default_left":[0,0,0,0,0,0,0,0,0,0,0,0,0],"id":3,"left_children":[1,3,5,-1,-1,-1,7,9,-1,-1,11,-1,-1],"loss_changes":[1.6022031E3,5.1338074E1,2.4361206E1,0E0,0E0,0E0,5.121826E0,7.1182604E0,0E0,0E0,8.794165E-2,0E0,0E0],"parents":[2147483647,0,0,1,1,2,2,6,6,7,7,10,10],"right_children":[2,4,6,-1,-1,-1,8,10,-1,-1,12,-1,-1],"split_conditions":[7.936508E-2,7.3E-1,6.4E-1,-1.1446033E-1,5.638532E-2,-8.119416E-2,8.450704E-2,6E0,6.986889E-2,-5.6183048E-2,3.6721903E-1,5.461895E-2,1.4419313E-2],"split_indices":[6,5,5,0,0,0,6,11,0,0,14,0,0],"split_type":[0,0,0,0,0,0,0,0,0,0,0,0,0],"sum_hessian":[5.271976E2,2.028498E2,3.2434778E2,1.9891454E2,3.9352481E0,1.9286106E0,3.2241916E2,5.4951153E0,3.1692404E2,1.4135338E0,4.0815816E0,2.9953153E0,1.0862663E0],"tree_param":{"num_deleted":"0","num_feature":"20","num_nodes":"13","size_leaf_vector":"1"}},{"base_weights":[-1.7672945E-2,-2.0686307E0,1.3330487E0,-1.0890297E-1,-1.1932606E0,-2.3099284E-1,6.850971E-2,-9.949514E-2,-3.4025967E-1,-8.3077334E-2,5.697578E-1,2.6359093E-1,-1.3893363E0,5.366794E-2,-1.3790125E-2,-6.1052483E-2,6.4152783E-1,-8.3599195E-2,-1.7568255E-2,4.535032E-2,-2.5978526E-2],"categories":[],"categories_nodes":[],"categories_segments":[],"categories_sizes":[],"default_left":[0,0,0,0,0,0,0,0,0,0,0,0,0,0,0,0,0,0,0,0,0],"id":4,"left_children":[1,3,5,-1,7,9,-1,-1,11,-1,13,15,17,-1,-1,-1,19,-1,-1,-1,-1],"loss_changes":[1.4448541E3,1.7238586E1,1.8586182E1,0E0,1.6463165E1,1.0283767E1,0E0,0E0,8.84676E0,0E0,2.8384151E0,6.0223527E0,8.941145E-1,0E0,0E0,0E0,2.9674435E0,0E0,0E0,0E0,0E0],"parents":[2147483647,0,0,1,1,2,2,4,4,5,5,8,8,10,10,11,11,12,12,16,16],"right_children":[2,4,6,-1,8,10,-1,-1,12,-1,14,16,18,-1,-1,-1,20,-1,-1,-1,-1],"split_conditions":[7.936508E-2,6.1728396E-2,8.450704E-2,-1.0890297E-1,7.6233586E-3,7.35E-1,6.850971E-2,-9.949514E-2,-1.294E-1,-8.3077334E-2,-1.303E-1,1.1383961E0,7.5E1,5.366794E-2,-1.3790125E-2,-6.1052483E-2,7.811468E-1,-8.3599195E-2,-1.7568255E-2,4.535032E-2,-2.5978526E-2],"split_indices":[6,6,6,0,0,7,0,0,8,0,8,15,18,0,0,0,13,0,0,0,0],"split_type":[0,0,0,0,0,0,0,0,0,0,0,0,0,0,0,0,0,0,0,0,0],"sum_hessian":[5.1956116E2,2.0609366E2,3.1346747E2,1.8187022E2,2.4223436E1,7.150981E0,3.063165E2,1.1836323E1,1.2387114E1,2.1804986E0,4.9704823E0,8.337038E0,4.0500755E0,2.9463077E0,2.0241745E0,1.239015E0,7.098023E0,2.703164E0,1.3469111E0,5.9552307E0,1.1427923E0],"tree_param":{"num_deleted":"0","num_feature":"20","num_nodes":"21","size_leaf_vector":"1"}},{"base_weights":[-1.5049574E-2,-1.9201373E0,6.7268535E-2,-1.9960346E0,5.7370782E-2,-1.0287066E-1,-1.3859453E0,-9.755514E-2,-7.4560285E-1,-8.9116365E-2,-7.3135085E-2,-5.3509183E-2,1.7368812E-2],"categories":[],"categories_nodes":[],"categories_segments":[],"categories_sizes":[],"default_left":[0,0,0,0,0,0,0,0,0,0,0,0,0],"id":5,"left_children":[1,3,-1,5,-1,-1,7,-1,9,-1,11,-1,-1],"loss_changes":[1.3350444E3,5.2252563E1,0E0,5.0040283E0,0E0,0E0,6.5937576E0,0E0,8.266939E0,0E0,3.8721347E0,0E0,0E0],"parents":[2147483647,0,0,1,1,3,3,6,6,8,8,10,10],"right_children":[2,4,-1,6,-1,-1,8,-1,10,-1,12,-1,-1],"split_conditions":[8.450704E-2,7.3E-1,6.7268535E-2,6.4935066E-2,5.7370782E-2,-1.0287066E-1,7.4971537E-3,-9.755514E-2,6.4E-1,-8.9116365E-2,1.171642E0,-5.3509183E-2,1.7368812E-2],"split_indices":[6,5,0,6,0,0,0,0,5,0,15,0,0],"split_type":[0,0,0,0,0,0,0,0,0,0,0,0,0],"sum_hessian":[5.131223E2,2.1359688E2,2.9952545E2,2.0878053E2,4.816336E0,1.875406E2,2.1239935E1,1.0195002E1,1.1044933E1,3.6961918E0,7.3487415E0,1.7216605E0,5.6270814E0],"tree_param":{"num_deleted":"0","num_feature":"20","num_nodes":"13","size_leaf_vector":"1"}},{"base_weights":[1.13835875E-2,-1.8594187E0,1.2913299E0,-9.62878E-2,5.485748E-2,-6.512393E-2,1.3087726E0,4.0919745E-1,6.612767E-2,-6.2386986E-2,5.5596363E-2],"categories":[],"categories_nodes":[],"categories_segments":[],"categories_sizes":[],"default_left":[0,0,0,0,0,0,0,0,0,0,0],"id":6,"left_children":[1,3,5,-1,-1,-1,7,9,-1,-1,-1],"loss_changes":[1.200562E3,4.206073E1,1.517337E1,0E0,0E0,0E0,3.1307983E0,8.277259E0,0E0,0E0,0E0],"parents":[2147483647,0,0,1,1,2,2,6,6,7,7],"right_children":[2,4,6,-1,-1,-1,8,10,-1,-1,-1],"split_conditions":[7.936508E-2,7.3E-1,6.4E-1,-9.62878E-2,5.485748E-2,-6.512393E-2,8.450704E-2,7.35E-1,6.612767E-2,-6.2386986E-2,5.5596363E-2],"split_indices":[6,5,5,0,0,0,6,7,0,0,0],"split_type":[0,0,0,0,0,0,0,0,0,0,0],"sum_hessian":[4.993749E2,2.0267995E2,2.9669498E2,1.9857317E2,4.1067805E0,1.4897584E0,2.952052E2,4.917198E0,2.90288E2,1.2334166E0,3.6837816E0],"tree_param":{"num_deleted":"0","num_feature":"20","num_nodes":"11","size_leaf_vector":"1"}},{"base_weights":[8.904165E-3,-1.7263352E0,6.507665E-2,-1.8127912E0,5.7358492E-2,-9.3281694E-2,-1.230478E0,-1.407187E0,1.2485888E-2,-1.5809282E0,-4.1981068E-1,-8.283045E-2,-2.6193911E-2,9.0949675E-3,-4.0682048E-2],"categories":[],"categories_nodes":[],"categories_segments":[],"categories_sizes":[],"default_left":[0,0,0,0,0,0,0,0,0,0,0,0,0,0,0],"id":7,"left_children":[1,3,-1,5,-1,-1,7,9,-1,11,13,-1,-1,-1,-1],"loss_changes":[1.1010388E3,5.4141235E1,0E0,3.9763794E0,0E0,0E0,5.555212E0,2.4111214E0,0E0,3.2254028E-1,1.1062102E0,0E0,0E0,0E0,0E0],"parents":[2147483647,0,0,1,1,3,3,6,6,7,7,9,9,10,10],"right_children":[2,4,-1,6,-1,-1,8,10,-1,12,14,-1,-1,-1,-1],"split_conditions":[8.450704E-2,7.3E-1,6.507665E-2,6.4935066E-2,5.7358492E-2,-9.3281694E-2,7.7E1,7E-1,1.2485888E-2,1.1E1,5.1893985E-1,-8.283045E-2,-2.6193911E-2,9.0949675E-3,-4.0682048E-2],"split_indices":[6,5,0,6,0,0,18,5,0,11,13,0,0,0,0],"split_type":[0,0,0,0,0,0,0,0,0,0,0,0,0,0,0],"sum_hessian":[4.888715E2,2.0856116E2,2.8031033E2,2.0282776E2,5.733412E0,1.8393275E2,1.8894997E1,1.6923906E1,1.9710886E0,1.3880345E1,3.0435612E0,1.2423657E1,1.4566885E0,1.4168965E0,1.6266649E0],"tree_param":{"num_deleted":"0","num_feature":"20","num_nodes":"15","size_leaf_vector":"1"}},{"base_weights":[-1.1279908E-2,-1.6631151E0,6.410466E-2,-1.7386303E0,5.5537622E-2,-8.853329E-2,-9.909997E-1,-7.775884E-2,-3.466137E-2,5.593906E-1,-4.2663395E-2,4.681122E-2,-6.816849E-3],"categories":[],"categories_nodes":[],"categories_segments":[],"categories_sizes":[],"default_left":[0,0,0,0,0,0,0,0,0,0,0,0,0],"id":8,"left_children":[1,3,-1,5,-1,-1,7,-1,9,11,-1,-1,-1],"loss_changes":[1.02263196E3,4.5961243E1,0E0,3.1556396E0,0E0,0E0,5.7165127E0,0E0,2.904455E0,1.0442674E0,0E0,0E0,0E0],"parents":[2147483647,0,0,1,1,3,3,6,6,8,8,9,9],"right_children":[2,4,-1,6,-1,-1,8,-1,10,12,-1,-1,-1],"split_conditions":[8.450704E-2,7.3E-1,6.410466E-2,7.3529415E-2,5.5537622E-2,-8.853329E-2,9.097E-3,-7.775884E-2,3.070398E-1,8.064516E-2,-4.2663395E-2,4.681122E-2,-6.816849E-3],"split_indices":[6,5,0,6,0,0,0,0,19,6,0,0,0],"split_type":[0,0,0,0,0,0,0,0,0,0,0,0,0],"sum_hessian":[4.766638E2,2.091989E2,2.6746487E2,2.0401797E2,5.180927E0,1.94323E2,9.694984E0,5.703886E0,3.991098E0,2.4962542E0,1.4948437E0,1.3949937E0,1.1012607E0],"tree_param":{"num_deleted":"0","num_feature":"20","num_nodes":"13","size_leaf_vector":"1"}},{"base_weights":[-2.7795313E-3,-1.5212584E0,6.322734E-2,-1.6360956E0,5.7405975E-2,4.6979878E-2,-8.3804995E-2],"categories":[],"categories_nodes":[],"categories_segments":[],"categories_sizes":[],"default_left":[0,0,0,0,0,0,0],"id":9,"left_children":[1,3,-1,5,-1,-1,-1],"loss_changes":[8.923034E2,6.6539764E1,0E0,2.2455444E1,0E0,0E0,0E0],"parents":[2147483647,0,0,1,1,3,3],"right_children":[2,4,-1,6,-1,-1,-1],"split_conditions":[6E0,7.3E-1,6.322734E-2,5.9E1,5.7405975E-2,4.6979878E-2,-8.3804995E-2],"split_indices":[4,5,0,18,0,0,0],"split_type":[0,0,0,0,0,0,0],"sum_hessian":[4.616772E2,2.0993634E2,2.5174086E2,2.0164845E2,8.287876E0,2.7400746E0,1.9890839E2],"tree_param":{"num_deleted":"0","num_feature":"20","num_nodes":"7","size_leaf_vector":"1"}},{"base_weights":[8.621453E-3,-1.5404645E0,6.238369E-2,-1.6140928E0,5.38907E-2,-8.23557E-2,-9.0766096E-1,-7.171361E-2,-6.55641E-2,-5.782149E-2,6.78235E-1,-1.8123606E-3,5.021009E-2],"categories":[],"categories_nodes":[],"categories_segments":[],"categories_sizes":[],"default_left":[0,0,0,0,0,0,0,0,0,0,0,0,0],"id":10,"left_children":[1,3,-1,5,-1,-1,7,-1,9,-1,11,-1,-1],"loss_changes":[8.617899E2,4.020572E1,0E0,3.0415344E0,0E0,0E0,4.74502E0,0E0,5.0411334E0,0E0,9.097004E-1,0E0,0E0],"parents":[2147483647,0,0,1,1,3,3,6,6,8,8,10,10],"right_children":[2,4,-1,6,-1,-1,8,-1,10,-1,12,-1,-1],"split_conditions":[8.450704E-2,7.3E-1,6.238369E-2,7.3529415E-2,5.38907E-2,-8.23557E-2,9.097E-3,-7.171361E-2,6.3E-1,-5.782149E-2,1.3857733E0,-1.8123606E-3,5.021009E-2],"split_indices":[6,5,0,6,0,0,0,0,5,0,15,0,0],"split_type":[0,0,0,0,0,0,0,0,0,0,0,0,0],"sum_hessian":[4.469882E2,1.9853403E2,2.4845416E2,1.9347682E2,5.0572085E0,1.8356473E2,9.912105E0,5.665764E0,4.2463408E0,1.4966189E0,2.749722E0,1.1399286E0,1.6097934E0],"tree_param":{"num_deleted":"0","num_feature":"20","num_nodes":"13","size_leaf_vector":"1"}},{"base_weights":[6.5415334E-3,-1.513559E0,1.2052575E0,-1.5659205E0,4.987702E-2,-5.0817907E-2,1.2206922E0,-8.045709E-2,-9.576368E-1,4.305971E-1,6.1609264E-2,-7.3885046E-2,-2.547415E-1,-2.3362894E-2,7.955921E-1,4.6027842E-1,-6.261998E-2,4.5553725E-2,1.1879927E-2,4.794457E-2,-3.1326707E-2],"categories":[],"categories_nodes":[],"categories_segments":[],"categories_sizes":[],"default_left":[0,0,0,0,0,0,0,0,0,0,0,0,0,0,0,0,0,0,0,0,0],"id":11,"left_children":[1,3,5,7,-1,-1,9,-1,11,13,-1,-1,15,-1,17,19,-1,-1,-1,-1,-1],"loss_changes":[8.0002716E2,2.701471E1,9.657806E0,3.4546204E0,0E0,0E0,1.6872559E0,0E0,5.134432E0,2.0230887E0,0E0,0E0,6.0115504E0,0E0,3.8229465E-2,3.4021354E0,0E0,0E0,0E0,0E0,0E0],"parents":[2147483647,0,0,1,1,2,2,3,3,6,6,8,8,9,9,12,12,14,14,15,15],"right_children":[2,4,6,8,-1,-1,10,-1,12,14,-1,-1,16,-1,18,20,-1,-1,-1,-1,-1],"split_conditions":[7.936508E-2,7.3E-1,6.4E-1,6.4935066E-2,4.987702E-2,-5.0817907E-2,8.450704E-2,-8.045709E-2,7.6233586E-3,5.921084E-1,6.1609264E-2,-7.3885046E-2,-1.45E-1,-2.3362894E-2,2.4144258E0,1.08165756E-1,-6.261998E-2,4.5553725E-2,1.1879927E-2,4.794457E-2,-3.1326707E-2],"split_indices":[6,5,5,6,0,0,6,0,0,16,0,0,8,0,17,10,0,0,0,0,0],"split_type":[0,0,0,0,0,0,0,0,0,0,0,0,0,0,0,0,0,0,0,0,0],"sum_hessian":[4.3705103E2,1.9257835E2,2.4447266E2,1.8901344E2,3.5649123E0,1.2393091E0,2.4323335E2,1.7493793E2,1.4075514E1,4.038994E0,2.3919437E2,7.456346E0,6.6191683E0,1.0863917E0,2.952602E0,4.1695204E0,2.449648E0,1.9220463E0,1.0305557E0,2.9389007E0,1.2306199E0],"tree_param":{"num_deleted":"0","num_feature":"20","num_nodes":"21","size_leaf_vector":"1"}},{"base_weights":[2.1206904E-2,-1.432908E0,6.0900714E-2,-1.4965353E0,5.1556505E-2,-7.805022E-2,-8.359464E-1,-7.4192725E-2,-2.8721786E-1,7.965604E-1,-1.1140039E0,-6.513913E-3,5.7306785E-2,-6.8249665E-2,-1.3345246E-2],"categories":[],"categories_nodes":[],"categories_segments":[],"categories_sizes":[],"default_left":[0,0,0,0,0,0,0,0,0,0,0,0,0,0,0],"id":12,"left_children":[1,3,-1,5,-1,-1,7,-1,9,11,13,-1,-1,-1,-1],"loss_changes":[7.434429E2,3.1781433E1,0E0,6.719574E0,0E0,0E0,6.295664E0,0E0,1.1171313E1,1.9474053E0,1.1085062E0,0E0,0E0,0E0,0E0],"parents":[2147483647,0,0,1,1,3,3,6,6,8,8,9,9,10,10],"right_children":[2,4,-1,6,-1,-1,8,-1,10,12,14,-1,-1,-1,-1],"split_conditions":[8.450704E-2,7.3E-1,6.0900714E-2,6.4935066E-2,5.1556505E-2,-7.805022E-2,6.88E-1,-7.4192725E-2,-1.45E-1,-2.305E-1,7.936508E-2,-6.513913E-3,5.7306785E-2,-6.8249665E-2,-1.3345246E-2],"split_indices":[6,5,0,6,0,0,7,0,8,8,6,0,0,0,0],"split_type":[0,0,0,0,0,0,0,0,0,0,0,0,0,0,0],"sum_hessian":[4.2519058E2,1.91871E2,2.3331958E2,1.8742392E2,4.4470735E0,1.6951712E2,1.7906805E1,7.429865E0,1.047694E1,4.5496573E0,5.927283E0,1.4178356E0,3.1318219E0,4.100855E0,1.8264277E0],"tree_param":{"num_deleted":"0","num_feature":"20","num_nodes":"15","size_leaf_vector":"1"}},{"base_weights":[-1.1246161E-3,-1.3972275E0,6.0231637E-2,-1.4694566E0,5.2345928E-2,-7.593031E-2,-1.0044079E0,-1.1590186E0,1.1578727E-2,-1.2853626E0,-1.9100395E-1,-4.6139457E-3,-6.945511E-2,2.4688153E-2,-3.903442E-2],"categories":[],"categories_nodes":[],"categories_segments":[],"categories_sizes":[],"default_left":[0,0,0,0,0,0,0,0,0,0,0,0,0,0,0],"id":13,"left_children":[1,3,-1,5,-1,-1,7,9,-1,11,13,-1,-1,-1,-1],"loss_changes":[7.015527E2,3.563391E1,0E0,2.7719727E0,0E0,0E0,4.2668743E0,2.049385E0,0E0,1.9045143E0,1.7344973E0,0E0,0E0,0E0,0E0],"parents":[2147483647,0,0,1,1,3,3,6,6,7,7,9,9,10,10],"right_children":[2,4,-1,6,-1,-1,8,10,-1,12,14,-1,-1,-1,-1],"split_conditions":[8.450704E-2,7.3E-1,6.0231637E-2,6.4935066E-2,5.2345928E-2,-7.593031E-2,7.7E1,1.4610421E-2,1.1578727E-2,1.3635708E-1,-1.7695483E-2,-4.6139457E-3,-6.945511E-2,2.4688153E-2,-3.903442E-2],"split_indices":[6,5,0,6,0,0,18,0,0,19,10,0,0,0,0],"split_type":[0,0,0,0,0,0,0,0,0,0,0,0,0,0,0],"sum_hessian":[4.147572E2,1.9213371E2,2.2262349E2,1.8700612E2,5.1275945E0,1.6708221E2,1.9923895E1,1.7764036E1,2.1598592E0,1.5423189E1,2.3408475E0,1.3849325E0,1.4038257E1,1.1583672E0,1.1824803E0],"tree_param":{"num_deleted":"0","num_feature":"20","num_nodes":"15","size_leaf_vector":"1"}},{"base_weights":[6.569283E-3,-1.3736141E0,5.961132E-2,-1.4440391E0,-3.7923396E-1,-7.360827E-2,-9.202964E-1,-6.546827E-2,4.2066222E-1,-6.5076485E-2,-3.908671E-1,8.019568E-1,-3.532833E-2,4.6179155E-1,-5.3969096E-2,-1.7840762E-3,5.53101E-2,4.7775935E-2,-1.5185642E-2],"categories":[],"categories_nodes":[],"categories_segments":[],"categories_sizes":[],"default_left":[0,0,0,0,0,0,0,0,0,0,0,0,0,0,0,0,0,0,0],"id":14,"left_children":[1,3,-1,5,7,-1,9,-1,11,-1,13,15,-1,17,-1,-1,-1,-1,-1],"loss_changes":[6.580574E2,1.2465485E1,0E0,1.1962585E0,1.0703811E1,0E0,1.8111162E0,0E0,4.045346E0,0E0,4.162253E0,1.7001338E0,0E0,1.6086621E0,0E0,0E0,0E0,0E0,0E0],"parents":[2147483647,0,0,1,1,3,3,4,4,6,6,8,8,10,10,11,11,13,13],"right_children":[2,4,-1,6,8,-1,10,-1,12,-1,14,16,-1,18,-1,-1,-1,-1,-1],"split_conditions":[8.450704E-2,7.3529415E-2,5.961132E-2,6.4935066E-2,9.097E-3,-7.360827E-2,7.6233586E-3,-6.546827E-2,1.6135348E0,-6.5076485E-2,-1.45E-1,1.3591106E0,-3.532833E-2,-9.50915E-3,-5.3969096E-2,-1.7840762E-3,5.53101E-2,4.7775935E-2,-1.5185642E-2],"split_indices":[6,6,0,6,0,0,0,0,16,0,8,15,0,10,0,0,0,0,0],"split_type":[0,0,0,0,0,0,0,0,0,0,0,0,0,0,0,0,0,0,0],"sum_hessian":[4.0013052E2,1.848243E2,2.1530623E2,1.7217793E2,1.2646364E1,1.6168423E2,1.04936905E1,5.552692E0,7.0936723E0,5.252842E0,5.2408485E0,5.516298E0,1.5773747E0,2.4884448E0,2.7524035E0,1.7049649E0,3.811333E0,1.3618634E0,1.1265814E0],"tree_param":{"num_deleted":"0","num_feature":"20","num_nodes":"19","size_leaf_vector":"1"}},{"base_weights":[1.2943171E-2,-1.3278568E0,5.903194E-2,-1.390807E0,5.0380737E-2,-7.225566E-2,-8.9953476E-1,-1.2319622E0,-5.3584497E-2,-6.992667E-2,-5.9944403E-1,-4.928637E-2,7.7406394E-1,-5.602295E-2,1.2205171E-2,5.4934807E-2,-3.372797E-3],"categories":[],"categories_nodes":[],"categories_segments":[],"categories_sizes":[],"default_left":[0,0,0,0,0,0,0,0,0,0,0,0,0,0,0,0,0],"id":15,"left_children":[1,3,-1,5,-1,-1,7,9,11,-1,13,-1,15,-1,-1,-1,-1],"loss_changes":[6.109767E2,2.8108673E1,0E0,3.4306335E0,0E0,0E0,5.6421776E0,6.9215584E-1,5.9872975E0,0E0,2.373539E0,0E0,1.20702E0,0E0,0E0,0E0,0E0],"parents":[2147483647,0,0,1,1,3,3,6,6,7,7,8,8,10,10,12,12],"right_children":[2,4,-1,6,-1,-1,8,10,12,-1,14,-1,16,-1,-1,-1,-1],"split_conditions":[8.450704E-2,7.3E-1,5.903194E-2,6.4935066E-2,5.0380737E-2,-7.225566E-2,1.0577725E-2,7.943452E-3,6.7E-1,-6.992667E-2,6.7E1,-4.928637E-2,-1.45E-1,-5.602295E-2,1.2205171E-2,5.4934807E-2,-3.372797E-3],"split_indices":[6,5,0,6,0,0,0,0,5,0,18,0,8,0,0,0,0],"split_type":[0,0,0,0,0,0,0,0,0,0,0,0,0,0,0,0,0],"sum_hessian":[3.882379E2,1.806595E2,2.0757841E2,1.7631169E2,4.3478093E0,1.5701352E2,1.9298164E1,1.3526457E1,5.771707E0,9.748238E0,3.778219E0,2.6246667E0,3.1470406E0,2.1326952E0,1.645524E0,2.0504367E0,1.0966039E0],"tree_param":{"num_deleted":"0","num_feature":"20","num_nodes":"17","size_leaf_vector":"1"}},{"base_weights":[2.9868105E-2,-1.3352748E0,1.139275E0,-1.3778194E0,4.47905E-2,-4.844075E-2,1.15895E0,-7.0659876E-2,-8.644641E-1,5.816886E-3,5.827224E-2,-1.0500717E0,1.3152166E-2,-6.326035E-2,-3.8897306E-1,-4.831105E-2,1.5983963E-2],"categories":[],"categories_nodes":[],"categories_segments":[],"categories_sizes":[],"default_left":[0,0,0,0,0,0,0,0,0,0,0,0,0,0,0,0,0],"id":16,"left_children":[1,3,5,7,-1,-1,9,-1,11,-1,-1,13,-1,-1,15,-1,-1],"loss_changes":[5.5901715E2,1.6942871E1,9.568054E0,1.7348328E0,0E0,0E0,1.23349E0,0E0,3.01159E0,0E0,0E0,1.1325912E0,0E0,0E0,2.0468705E0,0E0,0E0],"parents":[2147483647,0,0,1,1,2,2,3,3,6,6,8,8,11,11,14,14],"right_children":[2,4,6,8,-1,-1,10,-1,12,-1,-1,14,-1,-1,16,-1,-1],"split_conditions":[7.936508E-2,7.3E-1,6.4E-1,6.4935066E-2,4.47905E-2,-4.844075E-2,1.88E-1,-7.0659876E-2,7.7E1,5.816886E-3,5.827224E-2,2.8818876E-1,1.3152166E-2,-6.326035E-2,1.4016618E0,-4.831105E-2,1.5983963E-2],"split_indices":[6,5,5,6,0,0,7,0,18,0,0,14,0,0,15,0,0],"split_type":[0,0,0,0,0,0,0,0,0,0,0,0,0,0,0,0,0],"sum_hessian":[3.6710583E2,1.644921E2,2.0261375E2,1.6178937E2,2.702722E0,1.4274575E0,2.011863E2,1.497186E2,1.2070783E1,1.362568E0,1.9982373E2,1.0423559E1,1.6472232E0,7.174903E0,3.2486563E0,1.5900139E0,1.6586424E0],"tree_param":{"num_deleted":"0","num_feature":"20","num_nodes":"17","size_leaf_vector":"1"}},{"base_weights":[-1.97091E-3,-1.2857184E0,5.79773E-2,-1.3514116E0,4.9451593E-2,-6.874972E-2,-8.049713E-1,-6.374287E-2,2.0032855E-2,4.0499713E-2,-4.9993104E-1,-1.444063E-3,-3.5904825E-2],"categories":[],"categories_nodes":[],"categories_segments":[],"categories_sizes":[],"default_left":[0,0,0,0,0,0,0,0,0,0,0,0,0],"id":17,"left_children":[1,3,-1,5,-1,-1,7,-1,9,-1,11,-1,-1],"loss_changes":[5.35192E2,2.6814026E1,0E0,1.0339966E0,0E0,0E0,3.6250143E0,0E0,2.1933162E0,0E0,3.126374E-1,0E0,0E0],"parents":[2147483647,0,0,1,1,3,3,6,6,8,8,10,10],"right_children":[2,4,-1,6,-1,-1,8,-1,10,-1,12,-1,-1],"split_conditions":[8.450704E-2,7.3E-1,5.79773E-2,7.3529415E-2,4.9451593E-2,-6.874972E-2,9.097E-3,-6.374287E-2,2.1976459E-1,4.0499713E-2,8E0,-1.444063E-3,-3.5904825E-2],"split_indices":[6,5,0,6,0,0,0,0,19,0,11,0,0],"split_type":[0,0,0,0,0,0,0,0,0,0,0,0,0],"sum_hessian":[3.5692578E2,1.6949135E2,1.8743445E2,1.6512846E2,4.3628826E0,1.5684328E2,8.285186E0,4.931275E0,3.3539107E0,1.1098969E0,2.2440138E0,1.0687708E0,1.1752431E0],"tree_param":{"num_deleted":"0","num_feature":"20","num_nodes":"13","size_leaf_vector":"1"}},{"base_weights":[9.807791E-3,-1.2364885E0,5.75034E-2,-1.3033522E0,4.922865E-2,-6.792001E-2,-7.9139465E-1,-6.558294E-2,-2.790956E-1,-5.781591E-2,2.808011E-1,-3.987037E-2,4.258251E-2],"categories":[],"categories_nodes":[],"categories_segments":[],"categories_sizes":[],"default_left":[0,0,0,0,0,0,0,0,0,0,0,0,0],"id":18,"left_children":[1,3,-1,5,-1,-1,7,-1,9,-1,11,-1,-1],"loss_changes":[5.0038474E2,2.6267822E1,0E0,3.5398254E0,0E0,0E0,4.509701E0,0E0,5.475721E0,0E0,5.1145334E0,0E0,0E0],"parents":[2147483647,0,0,1,1,3,3,6,6,8,8,10,10],"right_children":[2,4,-1,6,-1,-1,8,-1,10,-1,12,-1,-1],"split_conditions":[8.450704E-2,7.3E-1,5.75034E-2,6.4935066E-2,4.922865E-2,-6.792001E-2,6.5E-1,-6.558294E-2,6.88E-1,-5.781591E-2,3.401624E-2,-3.987037E-2,4.258251E-2],"split_indices":[6,5,0,6,0,0,5,0,7,0,1,0,0],"split_type":[0,0,0,0,0,0,0,0,0,0,0,0,0],"sum_hessian":[3.501097E2,1.6723674E2,1.8287297E2,1.6275043E2,4.4863224E0,1.4545692E2,1.7293493E1,7.8058953E0,9.4875965E0,3.2813227E0,6.206274E0,2.01102E0,4.1952543E0],"tree_param":{"num_deleted":"0","num_feature":"20","num_nodes":"13","size_leaf_vector":"1"}},{"base_weights":[-3.3436897E-3,-1.2437965E0,1.1348305E0,-6.632361E-2,-5.454183E-1,7.6819765E-3,5.705144E-2,-6.2828705E-2,2.531089E-3,5.8683926E-1,-8.930067E-1,5.4342896E-2,4.7724854E-2,-8.453929E-3,-5.489517E-2,-3.1249E-2,3.386725E-2],"categories":[],"categories_nodes":[],"categories_segments":[],"categories_sizes":[],"default_left":[0,0,0,0,0,0,0,0,0,0,0,0,0,0,0,0,0],"id":19,"left_children":[1,3,5,-1,7,-1,-1,-1,9,11,13,-1,15,-1,-1,-1,-1],"loss_changes":[4.7104575E2,8.494202E0,8.828583E-1,0E0,7.2499638E0,0E0,0E0,0E0,6.5425477E0,1.9870753E0,5.468137E-1,0E0,2.4078748E0,0E0,0E0,0E0,0E0],"parents":[2147483647,0,0,1,1,2,2,4,4,8,8,9,9,10,10,12,12],"right_children":[2,4,6,-1,8,-1,-1,-1,10,12,14,-1,16,-1,-1,-1,-1],"split_conditions":[8.219178E-2,6.4935066E-2,8.450704E-2,-6.632361E-2,7.943452E-3,7.6819765E-3,5.705144E-2,-6.2828705E-2,-1.294E-1,4.6073034E-2,7E0,5.4342896E-2,1.037E0,-8.453929E-3,-5.489517E-2,-3.1249E-2,3.386725E-2],"split_indices":[6,6,6,0,0,0,0,0,8,1,11,0,7,0,0,0,0],"split_type":[0,0,0,0,0,0,0,0,0,0,0,0,0,0,0,0,0],"sum_hessian":[3.316372E2,1.5864417E2,1.7299304E2,1.4104727E2,1.7596882E1,1.2478305E0,1.7174521E2,7.0951786E0,1.0501703E1,6.5637712E0,3.9379318E0,2.8782454E0,3.6855257E0,1.2713315E0,2.6666002E0,1.7853619E0,1.9001638E0],"tree_param":{"num_deleted":"0","num_feature":"20","num_nodes":"17","size_leaf_vector":"1"}},{"base_weights":[2.6152859E-2,-1.1933988E0,5.6637105E-2,-1.2589076E0,4.784104E-2,-6.557707E-2,-7.7647346E-1,-1.0899583E0,1.612521E-1,-1.2180173E0,-3.7711298E-1,-4.105832E-2,6.35776E-1,-6.420028E-2,-1.6687166E-2,-4.121531E-2,1.3599924E-2,5.33049E-2,-1.4746052E-2],"categories":[],"categories_nodes":[],"categories_segments":[],"categories_sizes":[],"default_left":[0,0,0,0,0,0,0,0,0,0,0,0,0,0,0,0,0,0,0],"id":20,"left_children":[1,3,-1,5,-1,-1,7,9,11,13,15,-1,17,-1,-1,-1,-1,-1,-1],"loss_changes":[4.3693137E2,2.2900986E1,0E0,2.7881622E0,0E0,0E0,5.2311506E0,7.289915E-1,2.9368248E0,1.8922234E-1,1.2201157E0,0E0,1.9390018E0,0E0,0E0,0E0,0E0,0E0,0E0],"parents":[2147483647,0,0,1,1,3,3,6,6,7,7,8,8,9,9,10,10,12,12],"right_children":[2,4,-1,6,-1,-1,8,10,12,14,16,-1,18,-1,-1,-1,-1,-1,-1],"split_conditions":[8.450704E-2,7.3E-1,5.6637105E-2,6.4935066E-2,4.784104E-2,-6.557707E-2,1.0577725E-2,7E-1,6.6E-1,7.480528E-1,7.4971537E-3,-4.105832E-2,1.3367056E0,-6.420028E-2,-1.6687166E-2,-4.121531E-2,1.3599924E-2,5.33049E-2,-1.4746052E-2],"split_indices":[6,5,0,6,0,0,0,5,5,13,0,0,16,0,0,0,0,0,0],"split_type":[0,0,0,0,0,0,0,0,0,0,0,0,0,0,0,0,0,0,0],"sum_hessian":[3.2176086E2,1.5303041E2,1.6873047E2,1.4890828E2,4.1221275E0,1.3271089E2,1.6197388E1,1.201754E1,4.179848E0,9.586674E0,2.430866E0,1.1234454E0,3.0564027E0,8.5003E0,1.0863733E0,1.2794876E0,1.1513784E0,1.9905554E0,1.0658473E0],"tree_param":{"num_deleted":"0","num_feature":"20","num_nodes":"19","size_leaf_vector":"1"}},{"base_weights":[-7.109297E-3,-1.1428299E0,5.6286316E-2,4.5679618E-2,-1.2045087E0,-1.2332802E0,-4.5785818E-1,-5.379577E-1,-6.1999213E-2,5.072277E-1,-5.5109184E-2,-3.35637E-2,-7.4267164E-3,4.1813225E-2,-7.443998E-3],"categories":[],"categories_nodes":[],"categories_segments":[],"categories_sizes":[],"default_left":[0,0,0,0,0,0,0,0,0,0,0,0,0,0,0],"id":21,"left_children":[1,3,-1,-1,5,7,9,11,-1,13,-1,-1,-1,-1,-1],"loss_changes":[4.0135495E2,2.0858673E1,0E0,0E0,2.6935272E0,1.0986328E-2,5.0474825E0,6.410569E-2,0E0,8.961982E-1,0E0,0E0,0E0,0E0,0E0],"parents":[2147483647,0,0,1,1,4,4,5,5,6,6,7,7,9,9],"right_children":[2,4,-1,-1,6,8,10,12,-1,14,-1,-1,-1,-1,-1],"split_conditions":[6E0,5.9E1,5.6286316E-2,4.5679618E-2,1.5887972E-2,-5.224979E-1,3.288E-1,6.6769873E-3,-6.1999213E-2,-3.643238E-1,-5.5109184E-2,-3.35637E-2,-7.4267164E-3,4.1813225E-2,-7.443998E-3],"split_indices":[4,18,0,0,0,2,9,0,0,3,0,0,0,0,0],"split_type":[0,0,0,0,0,0,0,0,0,0,0,0,0,0,0],"sum_hessian":[3.0995383E2,1.5477544E2,1.551784E2,4.104836E0,1.506706E2,1.444525E2,6.2180953E0,2.1553152E0,1.4229718E2,2.5745904E0,3.643505E0,1.0664574E0,1.0888578E0,1.5318075E0,1.0427828E0],"tree_param":{"num_deleted":"0","num_feature":"20","num_nodes":"15","size_leaf_vector":"1"}},{"base_weights":[-8.080762E-3,-1.1599307E0,5.5857837E-2,-1.2196789E0,4.6616156E-2,-6.287908E-2,-5.374357E-1,-5.5906773E-2,-9.031347E-2,7.2005147E-1,-8.285349E-1,4.089211E-3,4.7341496E-2,-7.2638923E-3,-5.198253E-2],"categories":[],"categories_nodes":[],"categories_segments":[],"categories_sizes":[],"default_left":[0,0,0,0,0,0,0,0,0,0,0,0,0,0,0],"id":22,"left_children":[1,3,-1,5,-1,-1,7,-1,9,11,13,-1,-1,-1,-1],"loss_changes":[3.8747083E2,1.9603973E1,0E0,3.04924E0,0E0,0E0,2.3210368E0,0E0,4.4002147E0,4.3872535E-1,3.9596534E-1,0E0,0E0,0E0,0E0],"parents":[2147483647,0,0,1,1,3,3,6,6,8,8,9,9,10,10],"right_children":[2,4,-1,6,-1,-1,8,-1,10,12,14,-1,-1,-1,-1],"split_conditions":[8.450704E-2,7.3E-1,5.5857837E-2,7.3529415E-2,4.6616156E-2,-6.287908E-2,4.5472583E-1,-5.5906773E-2,-1.303E-1,1.3591106E0,-6.4078465E-2,4.089211E-3,4.7341496E-2,-7.2638923E-3,-5.198253E-2],"split_indices":[6,5,0,6,0,0,16,0,8,15,2,0,0,0,0],"split_type":[0,0,0,0,0,0,0,0,0,0,0,0,0,0,0],"sum_hessian":[2.9695047E2,1.4672476E2,1.5022571E2,1.4305656E2,3.6681964E0,1.3472833E2,8.328242E0,2.970095E0,5.3581476E0,2.5659978E0,2.7921495E0,1.0293972E0,1.5366006E0,1.0575681E0,1.7345815E0],"tree_param":{"num_deleted":"0","num_feature":"20","num_nodes":"15","size_leaf_vector":"1"}},{"base_weights":[-2.3415139E-2,-1.1270169E0,5.5508185E-2,-1.1938378E0,4.7670733E-2,-6.280505E-2,-6.991269E-1,-6.0226686E-2,-3.0167845E-1,2.3363452E-1,-1.0070084E0,-4.27247E-2,4.3682825E-2,-5.682167E-2,-1.5790641E-2],"categories":[],"categories_nodes":[],"categories_segments":[],"categories_sizes":[],"default_left":[0,0,0,0,0,0,0,0,0,0,0,0,0,0,0],"id":23,"left_children":[1,3,-1,5,-1,-1,7,-1,9,11,13,-1,-1,-1,-1],"loss_changes":[3.6957663E2,2.1946E1,0E0,3.602478E0,0E0,0E0,3.3560858E0,0E0,4.652656E0,5.9439945E0,1.095376E-1,0E0,0E0,0E0,0E0],"parents":[2147483647,0,0,1,1,3,3,6,6,8,8,9,9,10,10],"right_children":[2,4,-1,6,-1,-1,8,-1,10,12,14,-1,-1,-1,-1],"split_conditions":[8.450704E-2,7.3E-1,5.5508185E-2,6.4935066E-2,4.7670733E-2,-6.280505E-2,6.5E-1,-6.0226686E-2,5.0087564E-2,1.171642E0,7.170224E-1,-4.27247E-2,4.3682825E-2,-5.682167E-2,-1.5790641E-2],"split_indices":[6,5,0,6,0,0,5,0,2,15,13,0,0,0,0],"split_type":[0,0,0,0,0,0,0,0,0,0,0,0,0,0,0],"sum_hessian":[2.9342023E2,1.4867888E2,1.4474133E2,1.4446501E2,4.2138734E0,1.269485E2,1.7516506E1,6.8170652E0,1.0699441E1,6.4630456E0,4.236396E0,2.2694895E0,4.193556E0,3.0256858E0,1.2107098E0],"tree_param":{"num_deleted":"0","num_feature":"20","num_nodes":"15","size_leaf_vector":"1"}},{"base_weights":[1.5701871E-2,-1.0875157E0,5.5218197E-2,-1.1657594E0,4.7273032E-2,3.463341E-2,-1.1939714E0,-6.050765E-2,-6.5455085E-1,-4.6762507E-2,1.1037624E-2],"categories":[],"categories_nodes":[],"categories_segments":[],"categories_sizes":[],"default_left":[0,0,0,0,0,0,0,0,0,0,0],"id":24,"left_children":[1,3,-1,5,-1,-1,7,-1,9,-1,-1],"loss_changes":[3.3268494E2,2.2987885E1,0E0,7.796829E0,0E0,0E0,3.5409546E-1,0E0,1.6812737E0,0E0,0E0],"parents":[2147483647,0,0,1,1,3,3,6,6,8,8],"right_children":[2,4,-1,6,-1,-1,8,-1,10,-1,-1],"split_conditions":[6E0,7.3E-1,5.5218197E-2,5.9E1,4.7273032E-2,3.463341E-2,1.5887972E-2,-6.050765E-2,6.9E-1,-4.6762507E-2,1.1037624E-2],"split_indices":[4,5,0,18,0,0,0,0,5,0,0],"split_type":[0,0,0,0,0,0,0,0,0,0,0],"sum_hessian":[2.7499948E2,1.3658717E2,1.3841231E2,1.319359E2,4.6512837E0,1.6207163E0,1.3031517E2,1.253126E2,5.0025754E0,3.7359986E0,1.266577E0],"tree_param":{"num_deleted":"0","num_feature":"20","num_nodes":"11","size_leaf_vector":"1"}},{"base_weights":[1.9046598E-3,-1.0796599E0,5.4892965E-2,-1.1596193E0,4.717014E-2,3.1382095E-2,-5.9107818E-2],"categories":[],"categories_nodes":[],"categories_segments":[],"categories_sizes":[],"default_left":[0,0,0,0,0,0,0],"id":25,"left_children":[1,3,-1,5,-1,-1,-1],"loss_changes":[3.2044897E2,2.3104294E1,0E0,6.032303E0,0E0,0E0,0E0],"parents":[2147483647,0,0,1,1,3,3],"right_children":[2,4,-1,6,-1,-1,-1],"split_conditions":[6E0,7.3E-1,5.4892965E-2,5.8E1,4.717014E-2,3.1382095E-2,-5.9107818E-2],"split_indices":[4,5,0,18,0,0,0],"split_type":[0,0,0,0,0,0,0],"sum_hessian":[2.6834222E2,1.3506526E2,1.3327696E2,1.3034048E2,4.7247663E0,1.2887547E0,1.2905174E2],"tree_param":{"num_deleted":"0","num_feature":"20","num_nodes":"7","size_leaf_vector":"1"}},{"base_weights":[9.506974E-3,-1.1196257E0,1.049612E0,-1.1660355E0,4.1150723E-2,-3.9137047E-2,1.07434E0,-6.0537647E-2,-6.177076E-1,3.7962648E-1,5.4570056E-2,-8.9381886E-1,2.7957816E-2,4.5382824E-2,-1.5580113E-2,-5.33635E-2,1.1203162E-2],"categories":[],"categories_nodes":[],"categories_segments":[],"categories_sizes":[],"default_left":[0,0,0,0,0,0,0,0,0,0,0,0,0,0,0,0,0],"id":26,"left_children":[1,3,5,7,-1,-1,9,-1,11,13,-1,15,-1,-1,-1,-1,-1],"loss_changes":[3.0069217E2,1.2028107E1,6.879318E0,2.2022705E0,0E0,0E0,1.1491852E0,0E0,4.111181E0,1.9965665E0,0E0,2.0591984E0,0E0,0E0,0E0,0E0,0E0],"parents":[2147483647,0,0,1,1,2,2,3,3,6,6,8,8,9,9,11,11],"right_children":[2,4,6,8,-1,-1,10,-1,12,14,-1,16,-1,-1,-1,-1,-1],"split_conditions":[7.936508E-2,7.3E-1,6.4E-1,6.4935066E-2,4.1150723E-2,-3.9137047E-2,8.450704E-2,-6.0537647E-2,7.7E1,5.0087564E-2,5.4570056E-2,1.4406712E-2,2.7957816E-2,4.5382824E-2,-1.5580113E-2,-5.33635E-2,1.1203162E-2],"split_indices":[6,5,5,6,0,0,6,0,18,2,0,0,0,0,0,0,0],"split_type":[0,0,0,0,0,0,0,0,0,0,0,0,0,0,0,0,0],"sum_hessian":[2.5403471E2,1.21767784E2,1.3226694E2,1.19317055E2,2.4507303E0,1.3530258E0,1.3091391E2,1.092032E2,1.0113856E1,3.6953094E0,1.272186E2,8.386707E0,1.7271488E0,1.9174572E0,1.7778523E0,7.2994037E0,1.0873035E0],"tree_param":{"num_deleted":"0","num_feature":"20","num_nodes":"17","size_leaf_vector":"1"}},{"base_weights":[1.9640718E-2,-1.070454E0,5.429941E-2,-1.131708E0,4.412384E-2,-5.986622E-2,-6.277548E-1,-5.6047697E-2,-2.3068468E-1,6.762712E-1,-8.9007497E-1,-8.390647E-3,4.7796626E-2,-5.2588023E-2,-1.0598887E-2],"categories":[],"categories_nodes":[],"categories_segments":[],"categories_sizes":[],"default_left":[0,0,0,0,0,0,0,0,0,0,0,0,0,0,0],"id":27,"left_children":[1,3,-1,5,-1,-1,7,-1,9,11,13,-1,-1,-1,-1],"loss_changes":[2.9085547E2,1.5801025E1,0E0,3.2301788E0,0E0,0E0,2.8697314E0,0E0,6.647313E0,1.2990992E0,4.6612263E-1,0E0,0E0,0E0,0E0],"parents":[2147483647,0,0,1,1,3,3,6,6,8,8,9,9,10,10],"right_children":[2,4,-1,6,-1,-1,8,-1,10,12,14,-1,-1,-1,-1],"split_conditions":[8.450704E-2,7.3E-1,5.429941E-2,6.4935066E-2,4.412384E-2,-5.986622E-2,1.2341197E0,-5.6047697E-2,-1.45E-1,2.6044473E-1,7.936508E-2,-8.390647E-3,4.7796626E-2,-5.2588023E-2,-1.0598887E-2],"split_indices":[6,5,0,6,0,0,17,0,8,14,6,0,0,0,0],"split_type":[0,0,0,0,0,0,0,0,0,0,0,0,0,0,0],"sum_hessian":[2.4821548E2,1.2273913E2,1.2547635E2,1.19414185E2,3.3249447E0,1.04439896E2,1.4974287E1,5.865595E0,9.108692E0,3.8237414E0,5.284951E0,1.0511285E0,2.7726128E0,3.8224745E0,1.4624768E0],"tree_param":{"num_deleted":"0","num_feature":"20","num_nodes":"15","size_leaf_vector":"1"}},{"base_weights":[-1.8024961E-3,-1.024234E0,5.405919E-2,-1.1063504E0,4.598586E-2,3.2282185E-2,-1.1332062E0,-1.1560057E0,-5.480665E-1,-2.2359474E-2,-5.813234E-2,2.0806119E-2,-4.6106357E-2],"categories":[],"categories_nodes":[],"categories_segments":[],"categories_sizes":[],"default_left":[0,0,0,0,0,0,0,0,0,0,0,0,0],"id":28,"left_children":[1,3,-1,5,-1,-1,7,9,11,-1,-1,-1,-1],"loss_changes":[2.632991E2,2.054242E1,0E0,6.274719E0,0E0,0E0,9.192352E-1,3.1738281E-3,2.6438792E0,0E0,0E0,0E0,0E0],"parents":[2147483647,0,0,1,1,3,3,6,6,7,7,8,8],"right_children":[2,4,-1,6,-1,-1,8,10,12,-1,-1,-1,-1],"split_conditions":[6E0,7.3E-1,5.405919E-2,5.9E1,4.598586E-2,3.2282185E-2,1.5887972E-2,-5.224979E-1,2.748E-1,-2.2359474E-2,-5.813234E-2,2.0806119E-2,-4.6106357E-2],"split_indices":[4,5,0,18,0,0,0,2,9,0,0,0,0],"split_type":[0,0,0,0,0,0,0,0,0,0,0,0,0],"sum_hessian":[2.357891E2,1.21313255E2,1.1447583E2,1.1680985E2,4.503403E0,1.41565E0,1.153942E2,1.10127556E2,5.2666483E0,1.6565481E0,1.0847101E2,1.4406761E0,3.8259723E0],"tree_param":{"num_deleted":"0","num_feature":"20","num_nodes":"13","size_leaf_vector":"1"}},{"base_weights":[-1.3045581E-2,-1.0913417E0,1.0441254E0,-1.128059E0,3.7078377E-2,1.3300495E-1,5.376568E-2,-5.8698863E-2,-6.564123E-1,-3.530393E-2,6.690972E-1,-9.8597604E-1,2.2830164E-1,3.8749285E-2,1.015124E-2,-5.554399E-2,-9.4964774E-4,-3.857157E-2,4.7888678E-2],"categories":[],"categories_nodes":[],"categories_segments":[],"categories_sizes":[],"default_left":[0,0,0,0,0,0,0,0,0,0,0,0,0,0,0,0,0,0,0],"id":29,"left_children":[1,3,5,7,-1,9,-1,-1,11,-1,13,15,17,-1,-1,-1,-1,-1,-1],"loss_changes":[2.6261588E2,8.511551E0,3.1627426E0,1.659317E0,0E0,2.7177536E0,0E0,0E0,3.7888389E0,0E0,1.8306255E-2,1.0771894E0,3.7502518E0,0E0,0E0,0E0,0E0,0E0,0E0],"parents":[2147483647,0,0,1,1,2,2,3,3,5,5,8,8,10,10,11,11,12,12],"right_children":[2,4,6,8,-1,10,-1,-1,12,-1,14,16,18,-1,-1,-1,-1,-1,-1],"split_conditions":[7.936508E-2,7.3E-1,8.450704E-2,6.4935066E-2,3.7078377E-2,7.96E-1,5.376568E-2,-5.8698863E-2,1.2407453E-2,-3.530393E-2,4.6003405E-2,7.355875E-1,6.4E-1,3.8749285E-2,1.015124E-2,-5.554399E-2,-9.4964774E-4,-3.857157E-2,4.7888678E-2],"split_indices":[6,5,6,6,0,7,0,0,0,0,2,13,5,0,0,0,0,0,0],"split_type":[0,0,0,0,0,0,0,0,0,0,0,0,0,0,0,0,0,0,0],"sum_hessian":[2.2837662E2,1.130427E2,1.15333916E2,1.1119968E2,1.8430269E0,3.9915245E0,1.1134239E2,9.997707E1,1.12226E1,1.4324269E0,2.5590975E0,8.093312E0,3.1292877E0,1.5452305E0,1.013867E0,7.0357103E0,1.0576024E0,1.2958372E0,1.8334506E0],"tree_param":{"num_deleted":"0","num_feature":"20","num_nodes":"19","size_leaf_vector":"1"}},{"base_weights":[1.50494175E-2,-9.886292E-1,5.3575393E-2,-1.0631856E0,4.4113446E-2,2.9460896E-2,-1.0864866E0,-5.544865E-2,-5.100725E-1,2.0028861E-2,-4.4304308E-2],"categories":[],"categories_nodes":[],"categories_segments":[],"categories_sizes":[],"default_left":[0,0,0,0,0,0,0,0,0,0,0],"id":30,"left_children":[1,3,-1,5,-1,-1,7,-1,9,-1,-1],"loss_changes":[2.3394016E2,1.672062E1,0E0,4.8471375E0,0E0,0E0,8.3543396E-1,0E0,2.378738E0,0E0,0E0],"parents":[2147483647,0,0,1,1,3,3,6,6,8,8],"right_children":[2,4,-1,6,-1,-1,8,-1,10,-1,-1],"split_conditions":[6E0,7.3E-1,5.3575393E-2,5.9E1,4.4113446E-2,2.9460896E-2,1.5887972E-2,-5.544865E-2,2.748E-1,2.0028861E-2,-4.4304308E-2],"split_indices":[4,5,0,18,0,0,0,0,9,0,0],"split_type":[0,0,0,0,0,0,0,0,0,0,0],"sum_hessian":[2.1862749E2,1.1214723E2,1.0648025E2,1.0826455E2,3.8826792E0,1.1677213E0,1.0709683E2,1.02186516E2,4.910319E0,1.4158974E0,3.4944217E0],"tree_param":{"num_deleted":"0","num_feature":"20","num_nodes":"11","size_leaf_vector":"1"}},{"base_weights":[7.235675E-3,-1.0526327E0,1.0238644E0,-1.0989989E0,3.858394E-2,-3.5677522E-2,1.0501844E0,-5.7651978E-2,-5.747339E-1,5.541354E-3,5.291461E-2,-8.534103E-1,2.5642642E-1,-4.9299926E-2,-1.1863592E-2,-1.5729338E-2,3.365674E-2],"categories":[],"categories_nodes":[],"categories_segments":[],"categories_sizes":[],"default_left":[0,0,0,0,0,0,0,0,0,0,0,0,0,0,0,0,0],"id":31,"left_children":[1,3,5,7,-1,-1,9,-1,11,-1,-1,13,15,-1,-1,-1,-1],"loss_changes":[2.2956927E2,9.671654E0,5.7220917E0,2.2311401E0,0E0,0E0,7.0163727E-1,0E0,2.8914595E0,0E0,0E0,4.9085522E-1,1.0841293E0,0E0,0E0,0E0,0E0],"parents":[2147483647,0,0,1,1,2,2,3,3,6,6,8,8,11,11,12,12],"right_children":[2,4,6,8,-1,-1,10,-1,12,-1,-1,14,16,-1,-1,-1,-1],"split_conditions":[7.936508E-2,7.3E-1,6.4E-1,6.4935066E-2,3.858394E-2,-3.5677522E-2,3.37722E-3,-5.7651978E-2,6.9E-1,5.541354E-3,5.291461E-2,3.367166E-1,2.4617134E-1,-4.9299926E-2,-1.1863592E-2,-1.5729338E-2,3.365674E-2],"split_indices":[6,5,5,6,0,0,0,0,5,0,0,14,14,0,0,0,0],"split_type":[0,0,0,0,0,0,0,0,0,0,0,0,0,0,0,0,0],"sum_hessian":[2.1105853E2,1.0331445E2,1.0774408E2,1.0114146E2,2.173002E0,1.2182051E0,1.0652587E2,9.060287E1,1.0538587E1,1.0371026E0,1.0548877E2,7.8723335E0,2.6662526E0,5.984277E0,1.8880571E0,1.2282523E0,1.4380004E0],"tree_param":{"num_deleted":"0","num_feature":"20","num_nodes":"17","size_leaf_vector":"1"}},{"base_weights":[2.8968235E-2,-1.0018189E0,5.3086232E-2,-1.0634813E0,4.141091E-2,-5.7140704E-2,-5.3072655E-1,-5.163413E-2,-1.3286214E-1,-4.671614E-2,3.0740687E-1,3.0582324E-2,-2.5668336E-2],"categories":[],"categories_nodes":[],"categories_segments":[],"categories_sizes":[],"default_left":[0,0,0,0,0,0,0,0,0,0,0,0,0],"id":32,"left_children":[1,3,-1,5,-1,-1,7,-1,9,-1,11,-1,-1],"loss_changes":[2.1359032E2,1.2213722E1,0E0,3.5182571E0,0E0,0E0,2.7618365E0,0E0,3.5495286E0,0E0,1.9920046E0,0E0,0E0],"parents":[2147483647,0,0,1,1,3,3,6,6,8,8,10,10],"right_children":[2,4,-1,6,-1,-1,8,-1,10,-1,12,-1,-1],"split_conditions":[8.450704E-2,7.3E-1,5.3086232E-2,6.4935066E-2,4.141091E-2,-5.7140704E-2,7.41426E-3,-5.163413E-2,6.5E-1,-4.671614E-2,5.0087564E-2,3.0582324E-2,-2.5668336E-2],"split_indices":[6,5,0,6,0,0,0,0,5,0,2,0,0],"split_type":[0,0,0,0,0,0,0,0,0,0,0,0,0],"sum_hessian":[1.9863954E2,9.942954E1,9.920999E1,9.659373E1,2.8358147E0,8.307751E1,1.3516223E1,5.270836E0,8.245387E0,2.5256178E0,5.719769E0,4.358849E0,1.3609201E0],"tree_param":{"num_deleted":"0","num_feature":"20","num_nodes":"13","size_leaf_vector":"1"}},{"base_weights":[1.939197E-2,-1.0038975E0,1.0470144E0,-1.0612639E0,4.0194623E-2,5.372688E-3,5.2878357E-2,-5.6697603E-2,-5.0822914E-1,-7.006907E-1,2.914392E-2,-9.923234E-1,2.1179214E-2,-5.4037035E-2,-9.531561E-3,-3.718648E-2,2.9146498E-2],"categories":[],"categories_nodes":[],"categories_segments":[],"categories_sizes":[],"default_left":[0,0,0,0,0,0,0,0,0,0,0,0,0,0,0,0,0],"id":33,"left_children":[1,3,5,7,-1,-1,-1,-1,9,11,-1,13,15,-1,-1,-1,-1],"loss_changes":[2.0509758E2,1.0989059E1,8.5113525E-1,3.2491074E0,0E0,0E0,0E0,0E0,3.110404E0,2.419199E0,0E0,3.705864E-1,2.2627342E0,0E0,0E0,0E0,0E0],"parents":[2147483647,0,0,1,1,2,2,3,3,8,8,9,9,11,11,12,12],"right_children":[2,4,6,8,-1,-1,-1,-1,10,12,-1,14,16,-1,-1,-1,-1],"split_conditions":[8.219178E-2,7.3E-1,8.450704E-2,6.4935066E-2,4.0194623E-2,5.372688E-3,5.2878357E-2,-5.6697603E-2,7.7E1,6.9E-1,2.914392E-2,3.5620666E-1,7.394179E-1,-5.4037035E-2,-9.531561E-3,-3.718648E-2,2.9146498E-2],"split_indices":[6,5,6,6,0,0,0,0,18,5,0,14,16,0,0,0,0],"split_type":[0,0,0,0,0,0,0,0,0,0,0,0,0,0,0,0,0],"sum_hessian":[1.9304256E2,9.673676E1,9.630579E1,9.41617E1,2.5750706E0,1.19385E0,9.5111946E1,8.229486E1,1.1866833E1,1.0391656E1,1.4751772E0,7.1346335E0,3.2570224E0,6.1124296E0,1.0222037E0,1.2419584E0,2.015064E0],"tree_param":{"num_deleted":"0","num_feature":"20","num_nodes":"17","size_leaf_vector":"1"}},{"base_weights":[5.3879386E-3,-9.862033E-1,5.2670777E-2,-1.0451889E0,4.0240016E-2,-5.627796E-2,-4.6392378E-1,-8.620075E-1,4.882797E-1,-4.793053E-2,-2.2568486E-3,5.0753254E-2,-2.3918033E-2],"categories":[],"categories_nodes":[],"categories_segments":[],"categories_sizes":[],"default_left":[0,0,0,0,0,0,0,0,0,0,0,0,0],"id":34,"left_children":[1,3,-1,5,-1,-1,7,9,11,-1,-1,-1,-1],"loss_changes":[1.932864E2,1.0937752E1,0E0,3.8205872E0,0E0,0E0,5.34608E0,7.0831203E-1,2.7612267E0,0E0,0E0,0E0,0E0],"parents":[2147483647,0,0,1,1,3,3,6,6,7,7,8,8],"right_children":[2,4,-1,6,-1,-1,8,10,12,-1,-1,-1,-1],"split_conditions":[8.450704E-2,7.3E-1,5.2670777E-2,6.4935066E-2,4.0240016E-2,-5.627796E-2,1.2407453E-2,7.7E1,1.242E0,-4.793053E-2,-2.2568486E-3,5.0753254E-2,-2.3918033E-2],"split_indices":[6,5,0,6,0,0,0,18,7,0,0,0,0],"split_type":[0,0,0,0,0,0,0,0,0,0,0,0,0],"sum_hessian":[1.8399301E2,9.4572365E1,8.942065E1,9.1960144E1,2.6122248E0,7.9966896E1,1.199325E1,8.524268E0,3.4689817E0,7.4676304E0,1.0566374E0,2.2129207E0,1.256061E0],"tree_param":{"num_deleted":"0","num_feature":"20","num_nodes":"13","size_leaf_vector":"1"}},{"base_weights":[2.344837E-2,-9.208942E-1,5.253418E-2,3.854424E-2,-9.7733086E-1,-5.573923E-2,-6.565945E-1,-5.4114413E-2,-1.9896255E-1,2.0610674E-1,-4.6722863E-2,4.1241165E-2,-3.193163E-2],"categories":[],"categories_nodes":[],"categories_segments":[],"categories_sizes":[],"default_left":[0,0,0,0,0,0,0,0,0,0,0,0,0],"id":35,"left_children":[1,3,-1,-1,5,-1,7,-1,9,11,-1,-1,-1],"loss_changes":[1.7529755E2,9.744209E0,0E0,0E0,3.3048935E0,0E0,5.609989E0,0E0,4.8509336E0,6.224792E0,0E0,0E0,0E0],"parents":[2147483647,0,0,1,1,4,4,6,6,8,8,9,9],"right_children":[2,4,-1,-1,6,-1,8,-1,10,12,-1,-1,-1],"split_conditions":[6E0,5.9E1,5.253418E-2,3.854424E-2,5E0,-5.573923E-2,7.32E-1,-5.4114413E-2,8.1E1,-1.294E-1,-4.6722863E-2,4.1241165E-2,-3.193163E-2],"split_indices":[4,18,0,0,4,0,7,0,18,8,0,0,0],"split_type":[0,0,0,0,0,0,0,0,0,0,0,0,0],"sum_hessian":[1.7871016E2,9.316584E1,8.554431E1,2.5989478E0,9.0566895E1,6.1664474E1,2.890242E1,1.4266554E1,1.4635866E1,9.902109E0,4.7337565E0,5.729327E0,4.1727824E0],"tree_param":{"num_deleted":"0","num_feature":"20","num_nodes":"13","size_leaf_vector":"1"}},{"base_weights":[-3.7196295E-3,-9.720831E-1,5.2288514E-2,-1.0261643E0,3.819031E-2,-5.5484682E-2,-5.066345E-1,-7.0082515E-1,2.9850746E-2,-8.513182E-1,-7.651332E-2,-4.9843904E-2,-1.0063599E-2,2.867043E-2,-3.2442685E-2],"categories":[],"categories_nodes":[],"categories_segments":[],"categories_sizes":[],"default_left":[0,0,0,0,0,0,0,0,0,0,0,0,0,0,0],"id":36,"left_children":[1,3,-1,5,-1,-1,7,9,-1,11,13,-1,-1,-1,-1],"loss_changes":[1.733718E2,9.113098E0,0E0,3.190239E0,0E0,0E0,3.3796432E0,1.0820141E0,0E0,7.20901E-1,1.6629175E0,0E0,0E0,0E0,0E0],"parents":[2147483647,0,0,1,1,3,3,6,6,7,7,9,9,10,10],"right_children":[2,4,-1,6,-1,-1,8,10,-1,12,14,-1,-1,-1,-1],"split_conditions":[8.450704E-2,7.3E-1,5.2288514E-2,6.4935066E-2,3.819031E-2,-5.5484682E-2,7.7E1,1.2567845E-2,2.9850746E-2,9E0,8E0,-4.9843904E-2,-1.0063599E-2,2.867043E-2,-3.2442685E-2],"split_indices":[6,5,0,6,0,0,18,0,0,11,11,0,0,0,0],"split_type":[0,0,0,0,0,0,0,0,0,0,0,0,0,0,0],"sum_hessian":[1.6859294E2,8.7723915E1,8.086902E1,8.546997E1,2.2539392E0,7.265296E1,1.2817011E1,1.1209633E1,1.6073781E0,8.739362E0,2.4702709E0,6.7045197E0,2.0348425E0,1.1558628E0,1.3144081E0],"tree_param":{"num_deleted":"0","num_feature":"20","num_nodes":"15","size_leaf_vector":"1"}},{"base_weights":[1.599186E-2,-9.857437E-1,9.977628E-1,-1.0357538E0,3.612259E-2,-3.2889947E-2,1.0280652E0,-5.5116456E-2,-4.7397247E-1,9.258739E-3,5.1835246E-2,-7.517756E-1,2.1282032E-2,-4.9435344E-2,-1.8412067E-1,2.96111E-2,-3.6443084E-2],"categories":[],"categories_nodes":[],"categories_segments":[],"categories_sizes":[],"default_left":[0,0,0,0,0,0,0,0,0,0,0,0,0,0,0,0,0],"id":37,"left_children":[1,3,5,7,-1,-1,9,-1,11,-1,-1,13,-1,-1,15,-1,-1],"loss_changes":[1.6145522E2,7.6905823E0,4.835266E0,2.4458466E0,0E0,0E0,4.0373993E-1,0E0,2.8599222E0,0E0,0E0,9.109678E-1,0E0,0E0,1.9634002E0,0E0,0E0],"parents":[2147483647,0,0,1,1,2,2,3,3,6,6,8,8,11,11,14,14],"right_children":[2,4,6,8,-1,-1,10,-1,12,-1,-1,14,-1,-1,16,-1,-1],"split_conditions":[7.936508E-2,7.3E-1,6.4E-1,6.4935066E-2,3.612259E-2,-3.2889947E-2,2.78E-1,-5.5116456E-2,1.2567845E-2,9.258739E-3,5.1835246E-2,1.4237534E0,2.1282032E-2,-4.9435344E-2,-1.381E-1,2.96111E-2,-3.6443084E-2],"split_indices":[6,5,5,6,0,0,7,0,0,0,0,15,0,0,8,0,0],"split_type":[0,0,0,0,0,0,0,0,0,0,0,0,0,0,0,0,0],"sum_hessian":[1.6216808E2,8.026589E1,8.1902176E1,7.836529E1,1.9006091E0,1.0999357E0,8.080224E1,6.92021E1,9.163182E0,1.0474304E0,7.975481E1,7.126754E0,2.036428E0,4.504782E0,2.6219718E0,1.0452137E0,1.5767583E0],"tree_param":{"num_deleted":"0","num_feature":"20","num_nodes":"17","size_leaf_vector":"1"}},{"base_weights":[-6.8082507E-3,-9.52312E-1,5.1988285E-2,3.517313E-2,-1.0019772E0,-1.0647975E0,-5.753744E-1,-5.3786855E-2,-1.921041E-2,-4.713476E-2,-1.4976934E-1,2.9923913E-1,-3.3597972E-2,3.3177387E-2,-2.3216797E-2],"categories":[],"categories_nodes":[],"categories_segments":[],"categories_sizes":[],"default_left":[0,0,0,0,0,0,0,0,0,0,0,0,0,0,0],"id":38,"left_children":[1,3,-1,-1,5,7,9,-1,-1,-1,11,13,-1,-1,-1],"loss_changes":[1.5480124E2,7.463173E0,0E0,0E0,1.5367203E0,9.843445E-2,1.8083096E0,0E0,0E0,0E0,1.8342911E0,1.542418E0,0E0,0E0,0E0],"parents":[2147483647,0,0,1,1,4,4,5,5,6,6,10,10,11,11],"right_children":[2,4,-1,-1,6,8,10,-1,-1,-1,12,14,-1,-1,-1],"split_conditions":[6E0,5.8E1,5.1988285E-2,3.517313E-2,1.2407453E-2,1.4E1,5E0,-5.3786855E-2,-1.921041E-2,-4.713476E-2,5.0087564E-2,7.8E1,-3.3597972E-2,3.3177387E-2,-2.3216797E-2],"split_indices":[4,18,0,0,0,11,4,0,0,0,2,18,0,0,0],"split_type":[0,0,0,0,0,0,0,0,0,0,0,0,0,0,0],"sum_hessian":[1.5443698E2,8.118358E1,7.325341E1,1.9808395E0,7.9202736E1,6.773263E1,1.1470105E1,6.608973E1,1.642901E0,5.50448E0,5.965625E0,3.4371357E0,2.528489E0,2.4156199E0,1.0215157E0],"tree_param":{"num_deleted":"0","num_feature":"20","num_nodes":"15","size_leaf_vector":"1"}},{"base_weights":[2.2381712E-2,-9.280158E-1,5.1770367E-2,-9.9003005E-1,3.786539E-2,-5.4410737E-2,-4.548009E-1,-4.8958886E-2,-8.465887E-2,-4.301026E-2,3.839584E-1,4.061396E-2,-2.895009E-2],"categories":[],"categories_nodes":[],"categories_segments":[],"categories_sizes":[],"default_left":[0,0,0,0,0,0,0,0,0,0,0,0,0],"id":39,"left_children":[1,3,-1,5,-1,-1,7,-1,9,-1,11,-1,-1],"loss_changes":[1.4081956E2,8.638184E0,0E0,3.3535004E0,0E0,0E0,2.4538317E0,0E0,3.5125802E0,0E0,3.0067234E0,0E0,0E0],"parents":[2147483647,0,0,1,1,3,3,6,6,8,8,10,10],"right_children":[2,4,-1,6,-1,-1,8,-1,10,-1,12,-1,-1],"split_conditions":[8.450704E-2,7.3E-1,5.1770367E-2,6.4935066E-2,3.786539E-2,-5.4410737E-2,6.5E-1,-4.8958886E-2,7.4971537E-3,-4.301026E-2,-1.45E-1,4.061396E-2,-2.895009E-2],"split_indices":[6,5,0,6,0,0,5,0,0,0,8,0,0],"split_type":[0,0,0,0,0,0,0,0,0,0,0,0,0],"sum_hessian":[1.4426593E2,7.447712E1,6.978882E1,7.223179E1,2.2453282E0,6.0162197E1,1.2069591E1,4.3134108E0,7.7561803E0,2.6066444E0,5.1495357E0,3.6724994E0,1.4770362E0],"tree_param":{"num_deleted":"0","num_feature":"20","num_nodes":"13","size_leaf_vector":"1"}},{"base_weights":[-1.0657076E-2,-9.3537164E-1,5.161006E-2,-5.3665627E-2,-2.7532694E-1,-4.731242E-2,7.1182996E-2,7.1546483E-1,-7.66003E-1,4.0361886E-3,9.302719E-1,-1.0655895E-2,-4.3124285E-2,5.748963E-2,6.985109E-3],"categories":[],"categories_nodes":[],"categories_segments":[],"categories_sizes":[],"default_left":[0,0,0,0,0,0,0,0,0,0,0,0,0,0,0],"id":40,"left_children":[1,3,-1,-1,5,-1,7,9,11,-1,13,-1,-1,-1,-1],"loss_changes":[1.3852225E2,6.6357574E0,0E0,0E0,3.4394193E0,0E0,6.20878E0,8.040335E-1,8.5419655E-2,0E0,6.5892935E-1,0E0,0E0,0E0,0E0],"parents":[2147483647,0,0,1,1,4,4,6,6,7,7,8,8,10,10],"right_children":[2,4,-1,-1,6,-1,8,10,12,-1,14,-1,-1,-1,-1],"split_conditions":[8.450704E-2,6.4935066E-2,5.161006E-2,-5.3665627E-2,7.26E-1,-4.731242E-2,-1.294E-1,1.3591106E0,-1.3534546E-1,4.0361886E-3,-3.992062E-3,-1.0655895E-2,-4.3124285E-2,5.748963E-2,6.985109E-3],"split_indices":[6,6,0,0,7,0,8,15,2,0,2,0,0,0,0],"split_type":[0,0,0,0,0,0,0,0,0,0,0,0,0,0,0],"sum_hessian":[1.4164252E2,7.512838E1,6.651414E1,6.1623695E1,1.3504684E1,4.0098715E0,9.494813E0,5.447736E0,4.047077E0,1.7253206E0,3.7224152E0,1.0780847E0,2.9689922E0,2.557797E0,1.1646181E0],"tree_param":{"num_deleted":"0","num_feature":"20","num_nodes":"15","size_leaf_vector":"1"}},{"base_weights":[-2.7783916E-4,-9.086046E-1,5.1498957E-2,3.3127245E-2,-9.5543575E-1,-5.3661864E-2,-6.770875E-1,-3.1173718E-1,-5.0274517E-2,-4.5866664E-2,4.9057752E-2,2.1232953E-2,-3.1099534E-2],"categories":[],"categories_nodes":[],"categories_segments":[],"categories_sizes":[],"default_left":[0,0,0,0,0,0,0,0,0,0,0,0,0],"id":41,"left_children":[1,3,-1,-1,5,-1,7,9,-1,-1,11,-1,-1],"loss_changes":[1.2865317E2,6.0088463E0,0E0,0E0,1.613121E0,0E0,2.5575228E0,2.8365808E0,0E0,0E0,2.521368E0,0E0,0E0],"parents":[2147483647,0,0,1,1,4,4,6,6,7,7,10,10],"right_children":[2,4,-1,-1,6,-1,8,10,-1,-1,12,-1,-1],"split_conditions":[6E0,5.9E1,5.1498957E-2,3.3127245E-2,5E0,-5.3661864E-2,8.1E1,6.61E-1,-5.0274517E-2,-4.5866664E-2,5.0087564E-2,2.1232953E-2,-3.1099534E-2],"split_indices":[4,18,0,0,4,0,18,7,0,0,2,0,0],"split_type":[0,0,0,0,0,0,0,0,0,0,0,0,0],"sum_hessian":[1.3547787E2,7.206223E1,6.3415638E1,1.7052383E0,7.0356995E1,4.742866E1,2.292833E1,1.1776334E1,1.1151995E1,3.8207133E0,7.955621E0,5.33607E0,2.619551E0],"tree_param":{"num_deleted":"0","num_feature":"20","num_nodes":"13","size_leaf_vector":"1"}},{"base_weights":[7.5007193E-3,-8.8653827E-1,5.131803E-2,-5.3531922E-2,-2.1752095E-1,-4.8182335E-2,1.9297084E-1,-4.3053057E-2,6.0566616E-1,8.7755686E-1,-1.4082651E-1,5.5107977E-2,-5.2806563E-3,-1.7563663E-2,6.25195E-3],"categories":[],"categories_nodes":[],"categories_segments":[],"categories_sizes":[],"default_left":[0,0,0,0,0,0,0,0,0,0,0,0,0,0,0],"id":42,"left_children":[1,3,-1,-1,5,-1,7,-1,9,11,13,-1,-1,-1,-1],"loss_changes":[1.2161181E2,8.525951E0,0E0,0E0,5.2705297E0,0E0,5.542409E0,0E0,1.9262698E0,1.5846052E0,2.2481087E-1,0E0,0E0,0E0,0E0],"parents":[2147483647,0,0,1,1,4,4,6,6,8,8,9,9,10,10],"right_children":[2,4,-1,-1,6,-1,8,-1,10,12,14,-1,-1,-1,-1],"split_conditions":[8.450704E-2,6.1728396E-2,5.131803E-2,-5.3531922E-2,7.26E-1,-4.8182335E-2,6.5E-1,-4.3053057E-2,8.069049E-2,8.491669E-2,2.6712337E-1,5.5107977E-2,-5.2806563E-3,-1.7563663E-2,6.25195E-3],"split_indices":[6,6,0,0,7,0,5,0,2,10,2,0,0,0,0],"split_type":[0,0,0,0,0,0,0,0,0,0,0,0,0,0,0],"sum_hessian":[1.3150832E2,7.0113945E1,6.139438E1,5.4512794E1,1.5601147E1,5.058706E0,1.054244E1,2.6606514E0,7.8817887E0,5.64879E0,2.232999E0,4.499797E0,1.1489931E0,1.0670934E0,1.1659056E0],"tree_param":{"num_deleted":"0","num_feature":"20","num_nodes":"15","size_leaf_vector":"1"}},{"base_weights":[3.3205398E-3,-9.053292E-1,5.1177036E-2,-5.254615E-2,-1.987567E-1,-4.4907875E-2,1.4801787E-1,4.8499984E-1,-3.8009785E-2,1.3149609E-2,4.4922274E-2,1.9427806E-2,-1.9840308E-2],"categories":[],"categories_nodes":[],"categories_segments":[],"categories_sizes":[],"default_left":[0,0,0,0,0,0,0,0,0,0,0,0,0],"id":43,"left_children":[1,3,-1,-1,5,-1,7,9,-1,11,-1,-1,-1],"loss_changes":[1.1798712E2,6.7165565E0,0E0,0E0,3.221629E0,0E0,3.237098E0,1.4408641E0,0E0,8.4556687E-1,0E0,0E0,0E0],"parents":[2147483647,0,0,1,1,4,4,6,6,7,7,9,9],"right_children":[2,4,-1,-1,6,-1,8,10,-1,12,-1,-1,-1],"split_conditions":[8.450704E-2,6.4935066E-2,5.1177036E-2,-5.254615E-2,7.26E-1,-4.4907875E-2,2.655E-1,7.2E1,-3.8009785E-2,-3.398615E-2,4.4922274E-2,1.9427806E-2,-1.9840308E-2],"split_indices":[6,6,0,0,7,0,9,18,0,3,0,0,0],"split_type":[0,0,0,0,0,0,0,0,0,0,0,0,0],"sum_hessian":[1.2527573E2,6.632055E1,5.8955177E1,5.4585506E1,1.1735042E1,3.3627546E0,8.372287E0,6.446408E0,1.9258791E0,3.492431E0,2.9539769E0,1.8502822E0,1.6421487E0],"tree_param":{"num_deleted":"0","num_feature":"20","num_nodes":"13","size_leaf_vector":"1"}},{"base_weights":[1.2269138E-3,-8.7927914E-1,5.1011425E-2,-9.47261E-1,3.7210476E-2,-5.3013563E-2,-3.9839387E-1,-2.1322519E-2,-8.701315E-1,-5.436143E-1,5.343193E-1,-4.8211265E-2,-1.1476639E-2,1.6606636E-2,-4.460909E-2,-1.7027289E-2,4.8242E-2],"categories":[],"categories_nodes":[],"categories_segments":[],"categories_sizes":[],"default_left":[0,0,0,0,0,0,0,0,0,0,0,0,0,0,0,0,0],"id":44,"left_children":[1,3,-1,5,-1,-1,7,9,11,13,15,-1,-1,-1,-1,-1,-1],"loss_changes":[1.078796E2,7.82386E0,0E0,3.444973E0,0E0,0E0,2.1600254E0,2.5633287E0,1.0511589E-1,1.6799845E0,1.9478146E0,0E0,0E0,0E0,0E0,0E0,0E0],"parents":[2147483647,0,0,1,1,3,3,6,6,7,7,8,8,9,9,10,10],"right_children":[2,4,-1,6,-1,-1,8,10,12,14,16,-1,-1,-1,-1,-1,-1],"split_conditions":[8.450704E-2,7.3E-1,5.1011425E-2,6.4935066E-2,3.7210476E-2,-5.3013563E-2,5.0087564E-2,1.3591106E0,7.170224E-1,1.4662266E-1,3.4736678E-2,-4.8211265E-2,-1.1476639E-2,1.6606636E-2,-4.460909E-2,-1.7027289E-2,4.8242E-2],"split_indices":[6,5,0,6,0,0,2,15,13,19,1,0,0,0,0,0,0],"split_type":[0,0,0,0,0,0,0,0,0,0,0,0,0,0,0,0,0],"sum_hessian":[1.1823553E2,6.350167E1,5.4733856E1,6.1349266E1,2.1524065E0,5.0101715E1,1.1247551E1,6.8318706E0,4.4156804E0,3.5327783E0,3.2990925E0,3.409661E0,1.0060192E0,1.0192202E0,2.513558E0,1.1569778E0,2.1421146E0],"tree_param":{"num_deleted":"0","num_feature":"20","num_nodes":"17","size_leaf_vector":"1"}},{"base_weights":[-3.951739E-3,-8.5384864E-1,5.0912637E-2,-9.3829876E-1,3.8978096E-2,-1.0147598E0,-5.05893E-1,-1.484027E-2,-1.0272187E0,1.5645118E-1,-4.5192506E-2,-5.2058943E-2,-1.7467208E-2,-3.390491E-2,6.975124E-1,4.1811794E-2,9.339985E-3],"categories":[],"categories_nodes":[],"categories_segments":[],"categories_sizes":[],"default_left":[0,0,0,0,0,0,0,0,0,0,0,0,0,0,0,0,0],"id":45,"left_children":[1,3,-1,5,-1,7,9,-1,11,13,-1,-1,-1,-1,15,-1,-1],"loss_changes":[1.0166857E2,9.545391E0,0E0,1.5103302E0,0E0,1.5146637E-1,3.091239E0,0E0,1.0697937E-1,2.7545276E0,0E0,0E0,0E0,0E0,9.589243E-2,0E0,0E0],"parents":[2147483647,0,0,1,1,3,3,5,5,6,6,8,8,9,9,14,14],"right_children":[2,4,-1,6,-1,8,10,-1,12,14,-1,-1,-1,-1,16,-1,-1],"split_conditions":[6E0,7.3E-1,5.0912637E-2,1.2407453E-2,3.8978096E-2,-5.132452E-1,2.748E-1,-1.484027E-2,1.4E1,6.6E-1,-4.5192506E-2,-5.2058943E-2,-1.7467208E-2,-3.390491E-2,5.1155545E-2,4.1811794E-2,9.339985E-3],"split_indices":[4,5,0,0,0,2,9,0,11,5,0,0,0,0,1,0,0],"split_type":[0,0,0,0,0,0,0,0,0,0,0,0,0,0,0,0,0],"sum_hessian":[1.1502532E2,6.2896034E1,5.2129284E1,6.0208702E1,2.687334E0,5.001749E1,1.0191212E1,1.2765772E0,4.8740913E1,4.0527835E0,6.138428E0,4.7232265E1,1.508646E0,1.4944397E0,2.5583436E0,1.5106264E0,1.0477173E0],"tree_param":{"num_deleted":"0","num_feature":"20","num_nodes":"17","size_leaf_vector":"1"}},{"base_weights":[2.7568676E-3,-8.803342E-1,5.0769802E-2,-9.5380026E-1,3.7182447E-2,-5.2535433E-2,-4.8997858E-1,1.8673928E-2,-6.441488E-1,-7.925692E-1,6.9311685E-3,-4.4369202E-2,-1.1830149E-2],"categories":[],"categories_nodes":[],"categories_segments":[],"categories_sizes":[],"default_left":[0,0,0,0,0,0,0,0,0,0,0,0,0],"id":46,"left_children":[1,3,-1,5,-1,-1,7,-1,9,11,-1,-1,-1],"loss_changes":[1.0056103E2,7.876133E0,0E0,2.088066E0,0E0,0E0,1.8222857E0,0E0,1.3238025E0,2.6089525E-1,0E0,0E0,0E0],"parents":[2147483647,0,0,1,1,3,3,6,6,8,8,9,9],"right_children":[2,4,-1,6,-1,-1,8,-1,10,12,-1,-1,-1],"split_conditions":[8.450704E-2,7.3E-1,5.0769802E-2,6.4935066E-2,3.7182447E-2,-5.2535433E-2,1.4106806E-1,1.8673928E-2,1.1E1,1.4610421E-2,6.9311685E-3,-4.4369202E-2,-1.1830149E-2],"split_indices":[6,5,0,6,0,0,19,0,11,0,0,0,0],"split_type":[0,0,0,0,0,0,0,0,0,0,0,0,0],"sum_hessian":[1.1045302E2,5.9070297E1,5.1382717E1,5.690854E1,2.1617606E0,4.602665E1,1.0881887E1,1.4330934E0,9.448794E0,7.932255E0,1.5165395E0,6.267312E0,1.6649427E0],"tree_param":{"num_deleted":"0","num_feature":"20","num_nodes":"13","size_leaf_vector":"1"}},{"base_weights":[9.034172E-3,-8.6331916E-1,5.062853E-2,-9.3438864E-1,3.6031153E-2,-5.0897725E-2,-2.2661033E-1,2.5799796E-2,-5.4075336E-1,-4.0553804E-2,-1.3703959E-1,1.9357106E-2,-3.0343343E-2],"categories":[],"categories_nodes":[],"categories_segments":[],"categories_sizes":[],"default_left":[0,0,0,0,0,0,0,0,0,0,0,0,0],"id":47,"left_children":[1,3,-1,5,-1,-1,7,-1,9,-1,11,-1,-1],"loss_changes":[9.315974E1,7.08239E0,0E0,3.017891E0,0E0,0E0,1.9321693E0,0E0,4.8559785E-1,0E0,1.0713637E0,0E0,0E0],"parents":[2147483647,0,0,1,1,3,3,6,6,8,8,10,10],"right_children":[2,4,-1,6,-1,-1,8,-1,10,-1,12,-1,-1],"split_conditions":[8.450704E-2,7.3E-1,5.062853E-2,7.3529415E-2,3.6031153E-2,-5.0897725E-2,2.1976459E-1,2.5799796E-2,8.48E-1,-4.0553804E-2,2.4144258E0,1.9357106E-2,-3.0343343E-2],"split_indices":[6,5,0,6,0,0,19,0,7,0,17,0,0],"split_type":[0,0,0,0,0,0,0,0,0,0,0,0,0],"sum_hessian":[1.04416405E2,5.593393E1,4.848247E1,5.392449E1,2.009437E0,4.783811E1,6.086379E0,1.618303E0,4.468076E0,2.0717893E0,2.3962867E0,1.2158101E0,1.1804768E0],"tree_param":{"num_deleted":"0","num_feature":"20","num_nodes":"13","size_leaf_vector":"1"}},{"base_weights":[1.7384589E-2,-7.933525E-1,5.0551903E-2,-8.7289923E-1,3.7519947E-2,-5.1818248E-2,-5.6026864E-1,-4.923355E-2,-1.3001455E-1,-4.397228E-2,2.8609833E-1,2.9226383E-2,-3.1990256E-2],"categories":[],"categories_nodes":[],"categories_segments":[],"categories_sizes":[],"default_left":[0,0,0,0,0,0,0,0,0,0,0,0,0],"id":48,"left_children":[1,3,-1,5,-1,-1,7,-1,9,-1,11,-1,-1],"loss_changes":[8.4568474E1,7.7555084E0,0E0,2.2531013E0,0E0,0E0,3.7459254E0,0E0,3.8962328E0,0E0,2.6589193E0,0E0,0E0],"parents":[2147483647,0,0,1,1,3,3,6,6,8,8,10,10],"right_children":[2,4,-1,6,-1,-1,8,-1,10,-1,12,-1,-1],"split_conditions":[6E0,7.3E-1,5.0551903E-2,5E0,3.7519947E-2,-5.1818248E-2,7.557596E-3,-4.923355E-2,6.5E-1,-4.397228E-2,7.8E1,2.9226383E-2,-3.1990256E-2],"split_indices":[4,5,0,4,0,0,0,0,5,0,18,0,0],"split_type":[0,0,0,0,0,0,0,0,0,0,0,0,0],"sum_hessian":[1.0298116E2,5.6821342E1,4.615982E1,5.445018E1,2.3711596E0,3.4234795E1,2.0215385E1,9.528198E0,1.0687187E1,3.4179263E0,7.269261E0,5.7762146E0,1.4930459E0],"tree_param":{"num_deleted":"0","num_feature":"20","num_nodes":"13","size_leaf_vector":"1"}},{"base_weights":[5.4402947E-3,-8.094846E-1,5.0398618E-2,-8.841163E-1,3.610612E-2,-5.16217E-2,-5.783329E-1,-4.889975E-2,-2.2936416E-1,-4.2894516E-2,1.5719652E-1,2.1178948E-2,-3.157224E-2],"categories":[],"categories_nodes":[],"categories_segments":[],"categories_sizes":[],"default_left":[0,0,0,0,0,0,0,0,0,0,0,0,0],"id":49,"left_children":[1,3,-1,5,-1,-1,7,-1,9,-1,11,-1,-1],"loss_changes":[8.1542915E1,6.9321136E0,0E0,1.8043976E0,0E0,0E0,2.5048704E0,0E0,2.990426E0,0E0,1.9738356E0,0E0,0E0],"parents":[2147483647,0,0,1,1,3,3,6,6,8,8,10,10],"right_children":[2,4,-1,6,-1,-1,8,-1,10,-1,12,-1,-1],"split_conditions":[6E0,7.3E-1,5.0398618E-2,5E0,3.610612E-2,-5.16217E-2,6.5E-1,-4.889975E-2,7.4971537E-3,-4.2894516E-2,7.8E1,2.1178948E-2,-3.157224E-2],"split_indices":[4,5,0,4,0,0,5,0,0,0,18,0,0],"split_type":[0,0,0,0,0,0,0,0,0,0,0,0,0],"sum_hessian":[9.781044E1,5.405968E1,4.3750755E1,5.195098E1,2.1086993E0,3.3382652E1,1.856833E1,7.8152556E0,1.0753076E1,3.630612E0,7.1224637E0,5.6701393E0,1.4523244E0],"tree_param":{"num_deleted":"0","num_feature":"20","num_nodes":"13","size_leaf_vector":"1"}},{"base_weights":[2.4287527E-2,-8.01341E-1,5.0298776E-2,-5.1362492E-2,-4.0248546E-1,-4.7689296E-2,1.3918364E-2,3.5344994E-1,-3.98029E-2,-2.9140744E-1,6.1456597E-1,3.9016907E-3,-2.417939E-2,4.179342E-2,-1.4410488E-2],"categories":[],"categories_nodes":[],"categories_segments":[],"categories_sizes":[],"default_left":[0,0,0,0,0,0,0,0,0,0,0,0,0,0,0],"id":50,"left_children":[1,3,-1,-1,5,-1,7,9,-1,11,13,-1,-1,-1,-1],"loss_changes":[7.628472E1,4.1944885E0,0E0,0E0,4.635727E0,0E0,3.7071927E0,1.7736838E0,0E0,2.79686E-1,1.6518562E0,0E0,0E0,0E0,0E0],"parents":[2147483647,0,0,1,1,4,4,6,6,7,7,9,9,10,10],"right_children":[2,4,-1,-1,6,-1,8,10,-1,12,14,-1,-1,-1,-1],"split_conditions":[6E0,5E0,5.0298776E-2,-5.1362492E-2,1.464E-1,-4.7689296E-2,8.1E1,3.401624E-2,-3.98029E-2,6.4E1,1.9731919E0,3.9016907E-3,-2.417939E-2,4.179342E-2,-1.4410488E-2],"split_indices":[4,4,0,0,9,0,18,1,0,18,15,0,0,0,0],"split_type":[0,0,0,0,0,0,0,0,0,0,0,0,0,0,0],"sum_hessian":[9.2124855E1,5.0139645E1,4.198521E1,3.1003822E1,1.9135822E1,7.6788416E0,1.1456982E1,8.470068E0,2.9869132E0,2.4077737E0,6.062294E0,1.0271567E0,1.3806171E0,4.928304E0,1.1339899E0],"tree_param":{"num_deleted":"0","num_feature":"20","num_nodes":"15","size_leaf_vector":"1"}},{"base_weights":[2.4923033E-3,-8.308336E-1,5.0111216E-2,-5.067597E-2,-1.6786817E-1,-3.5855016E-1,3.8679034E-2,-4.2032532E-2,-7.741678E-2,3.51764E-1,-4.9976167E-1,3.123121E-2,-8.48374E-3,-3.5279177E-2,-6.741505E-3],"categories":[],"categories_nodes":[],"categories_segments":[],"categories_sizes":[],"default_left":[0,0,0,0,0,0,0,0,0,0,0,0,0,0,0],"id":51,"left_children":[1,3,-1,-1,5,7,-1,-1,9,11,13,-1,-1,-1,-1],"loss_changes":[7.475015E1,5.756813E0,0E0,0E0,2.390343E0,1.354124E0,0E0,0E0,1.574345E0,7.3396796E-1,2.2798312E-1,0E0,0E0,0E0,0E0],"parents":[2147483647,0,0,1,1,4,4,5,5,8,8,9,9,10,10],"right_children":[2,4,-1,-1,6,8,-1,-1,10,12,14,-1,-1,-1,-1],"split_conditions":[8.450704E-2,6.4935066E-2,5.0111216E-2,-5.067597E-2,7.7E1,1.2341197E0,3.8679034E-2,-4.2032532E-2,-1.294E-1,4.7801514E-3,4E0,3.123121E-2,-8.48374E-3,-3.5279177E-2,-6.741505E-3],"split_indices":[6,6,0,0,18,17,0,0,8,10,12,0,0,0,0],"split_type":[0,0,0,0,0,0,0,0,0,0,0,0,0,0,0],"sum_hessian":[8.772554E1,4.79368E1,3.978874E1,3.7166485E1,1.0770313E1,9.471165E0,1.2991487E0,2.755569E0,6.715596E0,3.41373E0,3.3018663E0,2.1111267E0,1.3026032E0,1.51432E0,1.7875462E0],"tree_param":{"num_deleted":"0","num_feature":"20","num_nodes":"15","size_leaf_vector":"1"}},{"base_weights":[-8.254159E-3,-8.9878166E-1,9.2951375E-1,-9.4574404E-1,2.7580326E-2,4.447251E-2,5.000576E-2,-5.1293354E-2,-4.489284E-1,-3.0724404E-2,4.619406E-1,-9.924836E-3,-4.3872856E-2,2.9722815E-2,4.974346E-3,-3.2591905E-2,3.9567488E-1,-1.8957863E-2,4.8284575E-2],"categories":[],"categories_nodes":[],"categories_segments":[],"categories_sizes":[],"default_left":[0,0,0,0,0,0,0,0,0,0,0,0,0,0,0,0,0,0,0],"id":52,"left_children":[1,3,5,7,-1,9,-1,-1,11,-1,13,15,-1,-1,-1,-1,17,-1,-1],"loss_changes":[7.337973E1,3.5912056E0,2.6301003E0,1.291729E0,0E0,1.4416735E0,0E0,0E0,1.4758694E0,0E0,9.202987E-2,1.5361546E0,0E0,0E0,0E0,0E0,1.9697568E0,0E0,0E0],"parents":[2147483647,0,0,1,1,2,2,3,3,5,5,8,8,10,10,11,11,16,16],"right_children":[2,4,6,8,-1,10,-1,-1,12,-1,14,16,-1,-1,-1,-1,18,-1,-1],"split_conditions":[7.936508E-2,7.3E-1,8.450704E-2,6.4935066E-2,2.7580326E-2,7.35E-1,5.000576E-2,-5.1293354E-2,-3.992062E-3,-3.0724404E-2,2.8280348E-1,3.5378907E-2,-4.3872856E-2,2.9722815E-2,4.974346E-3,-3.2591905E-2,1.3591106E0,-1.8957863E-2,4.8284575E-2],"split_indices":[6,5,6,6,0,7,0,0,2,0,14,1,0,0,0,0,15,0,0],"split_type":[0,0,0,0,0,0,0,0,0,0,0,0,0,0,0,0,0,0,0],"sum_hessian":[8.586816E1,4.4064754E1,4.1803402E1,4.301975E1,1.0450075E0,3.2087877E0,3.8594616E1,3.612833E1,6.8914194E0,1.0614234E0,2.1473644E0,3.9095082E0,2.981911E0,1.10374E0,1.0436244E0,1.2787021E0,2.6308062E0,1.2569909E0,1.3738153E0],"tree_param":{"num_deleted":"0","num_feature":"20","num_nodes":"19","size_leaf_vector":"1"}},{"base_weights":[-5.8430517E-3,-7.9082984E-1,4.9873825E-2,-5.1087976E-2,-1.2012485E-1,-4.2949792E-2,2.2826037E-1,-3.6704287E-2,5.081725E-1,-1.8559132E-2,7.073189E-1,4.5290865E-2,-2.3972127E-3],"categories":[],"categories_nodes":[],"categories_segments":[],"categories_sizes":[],"default_left":[0,0,0,0,0,0,0,0,0,0,0,0,0],"id":53,"left_children":[1,3,-1,-1,5,-1,7,-1,9,-1,11,-1,-1],"loss_changes":[6.731929E1,7.304182E0,0E0,0E0,3.6491508E0,0E0,3.0415182E0,0E0,1.7099264E0,0E0,1.1053138E0,0E0,0E0],"parents":[2147483647,0,0,1,1,4,4,6,6,8,8,10,10],"right_children":[2,4,-1,-1,6,-1,8,-1,10,-1,12,-1,-1],"split_conditions":[8.450704E-2,6.1728396E-2,4.9873825E-2,-5.1087976E-2,7.26E-1,-4.2949792E-2,6.5E-1,-3.6704287E-2,3.218092E-2,-1.8559132E-2,8.300114E-2,4.5290865E-2,-2.3972127E-3],"split_indices":[6,6,0,0,7,0,5,0,1,0,2,0,0],"split_type":[0,0,0,0,0,0,0,0,0,0,0,0,0],"sum_hessian":[8.34732E1,4.6951004E1,3.6522194E1,3.4536404E1,1.2414601E1,3.5083292E0,8.906272E0,1.6412048E0,7.265067E0,1.1819878E0,6.0830793E0,4.659206E0,1.4238732E0],"tree_param":{"num_deleted":"0","num_feature":"20","num_nodes":"13","size_leaf_vector":"1"}},{"base_weights":[-7.936489E-5,-8.0117035E-1,4.980446E-2,-8.8608485E-1,3.5068773E-2,-9.492114E-1,-3.257574E-1,-9.780704E-1,-1.39268385E-2,-6.008111E-1,1.1255916E-2,-4.4561467E-1,-5.037378E-2,-4.832774E-3,-3.6918595E-2,-3.3409E-2,7.754358E-4],"categories":[],"categories_nodes":[],"categories_segments":[],"categories_sizes":[],"default_left":[0,0,0,0,0,0,0,0,0,0,0,0,0,0,0,0,0],"id":54,"left_children":[1,3,-1,5,-1,7,9,11,-1,13,-1,15,-1,-1,-1,-1,-1],"loss_changes":[6.414057E1,6.305414E0,0E0,1.1979027E0,0E0,4.5863342E-1,1.0196317E0,1.1180878E-1,0E0,2.1751833E-1,0E0,3.8675755E-1,0E0,0E0,0E0,0E0,0E0],"parents":[2147483647,0,0,1,1,3,3,5,5,6,6,7,7,9,9,11,11],"right_children":[2,4,-1,6,-1,8,10,12,-1,14,-1,16,-1,-1,-1,-1,-1],"split_conditions":[6E0,7.3E-1,4.980446E-2,1.3916887E-2,3.5068773E-2,1.3E1,6.9E-1,6.3E1,-1.39268385E-2,-3.47397E-1,1.1255916E-2,6.88E-1,-5.037378E-2,-4.832774E-3,-3.6918595E-2,-3.3409E-2,7.754358E-4],"split_indices":[4,5,0,0,0,11,5,18,0,3,0,7,0,0,0,0,0],"split_type":[0,0,0,0,0,0,0,0,0,0,0,0,0,0,0,0,0],"sum_hessian":[7.837445E1,4.354917E1,3.482528E1,4.160802E1,1.9411484E0,3.6771328E1,4.8366923E0,3.4814915E1,1.9564152E0,3.1655016E0,1.671191E0,2.667491E0,3.2147423E1,1.043553E0,2.1219487E0,1.4962744E0,1.1712166E0],"tree_param":{"num_deleted":"0","num_feature":"20","num_nodes":"17","size_leaf_vector":"1"}},{"base_weights":[-3.9672316E-3,-8.846803E-1,9.2490536E-1,-5.022679E-2,-2.7565148E-1,1.6455247E-1,4.961473E-2,-3.8296204E-2,5.4711077E-2,3.163418E-2,-1.273233E-2,-2.9408006E-2,5.3577965E-1,-4.810005E-3,4.0863182E-2],"categories":[],"categories_nodes":[],"categories_segments":[],"categories_sizes":[],"default_left":[0,0,0,0,0,0,0,0,0,0,0,0,0,0,0],"id":55,"left_children":[1,3,5,-1,7,9,-1,-1,11,-1,-1,-1,13,-1,-1],"loss_changes":[6.22276E1,2.5730667E0,1.7337666E0,0E0,1.3049786E0,9.8786426E-1,0E0,0E0,2.044621E0,0E0,0E0,0E0,7.407311E-1,0E0,0E0],"parents":[2147483647,0,0,1,1,2,2,4,4,5,5,8,8,12,12],"right_children":[2,4,6,-1,8,10,-1,-1,12,-1,-1,-1,14,-1,-1],"split_conditions":[7.936508E-2,6.349207E-2,8.450704E-2,-5.022679E-2,1.2341197E0,2.8280348E-1,4.961473E-2,-3.8296204E-2,3.800618E-2,3.163418E-2,-1.273233E-2,-2.9408006E-2,2.643945E-1,-4.810005E-3,4.0863182E-2],"split_indices":[6,6,6,0,17,14,0,0,1,0,0,0,14,0,0],"split_type":[0,0,0,0,0,0,0,0,0,0,0,0,0,0,0],"sum_hessian":[7.4066124E1,3.8043064E1,3.6023056E1,3.1244755E1,6.7983093E0,3.212968E0,3.281009E1,2.2060297E0,4.5922794E0,1.2773019E0,1.9356662E0,1.8703046E0,2.7219748E0,1.0416135E0,1.6803614E0],"tree_param":{"num_deleted":"0","num_feature":"20","num_nodes":"15","size_leaf_vector":"1"}},{"base_weights":[2.3834847E-3,-7.657034E-1,4.9493223E-2,-5.047664E-2,-1.3165262E-1,-4.1489255E-2,1.8291928E-1,6.480837E-1,-4.6253738E-1,4.1855436E-2,8.5348776E-4,-3.302119E-2,5.1545994E-3],"categories":[],"categories_nodes":[],"categories_segments":[],"categories_sizes":[],"default_left":[0,0,0,0,0,0,0,0,0,0,0,0,0],"id":56,"left_children":[1,3,-1,-1,5,-1,7,9,11,-1,-1,-1,-1],"loss_changes":[5.623548E1,6.3148804E0,0E0,0E0,2.9482849E0,0E0,3.1814146E0,7.0070076E-1,5.833413E-1,0E0,0E0,0E0,0E0],"parents":[2147483647,0,0,1,1,4,4,6,6,7,7,8,8],"right_children":[2,4,-1,-1,6,-1,8,10,12,-1,-1,-1,-1],"split_conditions":[8.450704E-2,6.1728396E-2,4.9493223E-2,-5.047664E-2,7.11E-1,-4.1489255E-2,-1.423E-1,7.303046E-2,7.1E-1,4.1855436E-2,8.5348776E-4,-3.302119E-2,5.1545994E-3],"split_indices":[6,6,0,0,7,0,8,10,5,0,0,0,0],"split_type":[0,0,0,0,0,0,0,0,0,0,0,0,0],"sum_hessian":[7.21439E1,4.0706207E1,3.1437695E1,2.8972427E1,1.173378E1,3.1360626E0,8.597717E0,4.9943466E0,3.6033702E0,3.59179E0,1.4025568E0,2.5453014E0,1.0580689E0],"tree_param":{"num_deleted":"0","num_feature":"20","num_nodes":"13","size_leaf_vector":"1"}},{"base_weights":[1.7557867E-2,-7.6926476E-1,4.9391646E-2,-5.026569E-2,-1.159873E-1,-4.0342327E-2,2.1108134E-1,6.9453716E-1,-4.0642303E-1,4.630069E-2,-5.8896635E-3,-2.086743E-3,-3.0522827E-2],"categories":[],"categories_nodes":[],"categories_segments":[],"categories_sizes":[],"default_left":[0,0,0,0,0,0,0,0,0,0,0,0,0],"id":57,"left_children":[1,3,-1,-1,5,-1,7,9,11,-1,-1,-1,-1],"loss_changes":[5.3514835E1,5.854328E0,0E0,0E0,2.7480025E0,0E0,2.83029E0,1.0786386E0,3.0034047E-1,0E0,0E0,0E0,0E0],"parents":[2147483647,0,0,1,1,4,4,6,6,7,7,8,8],"right_children":[2,4,-1,-1,6,-1,8,10,12,-1,-1,-1,-1],"split_conditions":[8.450704E-2,6.1728396E-2,4.9391646E-2,-5.026569E-2,7.26E-1,-4.0342327E-2,-1.408E-1,1.08165756E-1,5.0087564E-2,4.630069E-2,-5.8896635E-3,-2.086743E-3,-3.0522827E-2],"split_indices":[6,6,0,0,7,0,8,10,2,0,0,0,0],"split_type":[0,0,0,0,0,0,0,0,0,0,0,0,0],"sum_hessian":[6.810212E1,3.7720608E1,3.0381508E1,2.731279E1,1.0407819E1,2.87279E0,7.535029E0,4.1562634E0,3.3787656E0,3.1256504E0,1.030613E0,1.6443009E0,1.7344645E0],"tree_param":{"num_deleted":"0","num_feature":"20","num_nodes":"13","size_leaf_vector":"1"}},{"base_weights":[1.9485543E-2,-7.263479E-1,4.9292285E-2,-8.744289E-1,1.20432466E-1,1.5016723E-3,-9.055415E-1,5.815895E-1,-3.3789895E-2,-9.243379E-1,-9.859457E-3,-1.5739569E-3,3.824383E-2,-4.916767E-2,-5.107036E-1,1.5320866E-2,-4.032096E-2],"categories":[],"categories_nodes":[],"categories_segments":[],"categories_sizes":[],"default_left":[0,0,0,0,0,0,0,0,0,0,0,0,0,0,0,0,0],"id":58,"left_children":[1,3,-1,5,7,-1,9,11,-1,13,-1,-1,-1,-1,15,-1,-1],"loss_changes":[4.8396458E1,4.859331E0,0E0,9.386864E-1,2.7878978E0,0E0,2.3508835E-1,5.4856205E-1,0E0,2.365799E-1,0E0,0E0,0E0,0E0,1.6629323E0,0E0,0E0],"parents":[2147483647,0,0,1,1,3,3,4,4,6,6,7,7,9,9,14,14],"right_children":[2,4,-1,6,8,-1,10,12,-1,14,-1,-1,-1,-1,16,-1,-1],"split_conditions":[6E0,7.1E-1,4.9292285E-2,6.1E1,8.1E1,1.5016723E-3,4.6024293E-1,8.71E-1,-3.3789895E-2,1.2407453E-2,-9.859457E-3,-1.5739569E-3,3.824383E-2,-4.916767E-2,2.0401125E-1,1.5320866E-2,-4.032096E-2],"split_indices":[4,5,0,18,18,0,14,7,0,0,0,0,0,0,19,0,0],"split_type":[0,0,0,0,0,0,0,0,0,0,0,0,0,0,0,0,0],"sum_hessian":[6.5154434E1,3.6913265E1,2.8241165E1,3.1391087E1,5.522179E0,1.0450639E0,3.0346024E1,3.6675787E0,1.8546003E0,2.9264563E1,1.0814598E0,1.0347483E0,2.6328304E0,2.440519E1,4.859373E0,1.281671E0,3.577702E0],"tree_param":{"num_deleted":"0","num_feature":"20","num_nodes":"17","size_leaf_vector":"1"}},{"base_weights":[-1.464302E-2,-7.84555E-1,4.9130935E-2,-4.9948607E-2,-2.2246544E-1,-4.1453537E-2,8.7623775E-2,6.1638284E-1,-5.8256346E-1,3.6711823E-2,6.219068E-3,-8.496574E-3,-3.663605E-2],"categories":[],"categories_nodes":[],"categories_segments":[],"categories_sizes":[],"default_left":[0,0,0,0,0,0,0,0,0,0,0,0,0],"id":59,"left_children":[1,3,-1,-1,5,-1,7,9,11,-1,-1,-1,-1],"loss_changes":[5.0064487E1,4.2112904E0,0E0,0E0,2.225335E0,0E0,3.3632145E0,2.1161962E-1,1.3899195E-1,0E0,0E0,0E0,0E0],"parents":[2147483647,0,0,1,1,4,4,6,6,7,7,8,8],"right_children":[2,4,-1,-1,6,-1,8,10,12,-1,-1,-1,-1],"split_conditions":[8.450704E-2,6.1728396E-2,4.9130935E-2,-4.9948607E-2,1.2341197E0,-4.1453537E-2,-1.294E-1,8.300114E-2,2.40231E0,3.6711823E-2,6.219068E-3,-8.496574E-3,-3.663605E-2],"split_indices":[6,6,0,0,17,0,8,2,17,0,0,0,0],"split_type":[0,0,0,0,0,0,0,0,0,0,0,0,0],"sum_hessian":[6.3200745E1,3.5786175E1,2.741457E1,2.53419E1,1.0444277E1,2.9668293E0,7.477447E0,4.2246213E0,3.252826E0,3.0110185E0,1.2136027E0,1.4366391E0,1.8161869E0],"tree_param":{"num_deleted":"0","num_feature":"20","num_nodes":"13","size_leaf_vector":"1"}},{"base_weights":[-2.9163798E-2,-8.041853E-1,4.9027946E-2,-8.707733E-1,2.9251277E-2,-9.616131E-1,-2.1952087E-1,-4.916867E-2,-8.563244E-3,2.0824866E-2,-4.6180075E-1,-3.4664195E-2,-1.2198679E-1,9.611435E-3,-1.888255E-2],"categories":[],"categories_nodes":[],"categories_segments":[],"categories_sizes":[],"default_left":[0,0,0,0,0,0,0,0,0,0,0,0,0,0,0],"id":60,"left_children":[1,3,-1,5,-1,7,9,-1,-1,-1,11,-1,13,-1,-1],"loss_changes":[4.950976E1,3.8185635E0,0E0,1.8321743E0,0E0,3.4777832E-1,1.043502E0,0E0,0E0,0E0,2.6737064E-1,0E0,3.1571722E-1,0E0,0E0],"parents":[2147483647,0,0,1,1,3,3,5,5,6,6,10,10,12,12],"right_children":[2,4,-1,6,-1,8,10,-1,-1,-1,12,-1,14,-1,-1],"split_conditions":[8.450704E-2,7.3E-1,4.9027946E-2,7.3529415E-2,2.9251277E-2,4.6024293E-1,2.3405841E-1,-4.916867E-2,-8.563244E-3,2.0824866E-2,6.7E-1,-3.4664195E-2,-4.37931E-2,9.611435E-3,-1.888255E-2],"split_indices":[6,5,0,6,0,14,19,0,0,0,5,0,2,0,0],"split_type":[0,0,0,0,0,0,0,0,0,0,0,0,0,0,0],"sum_hessian":[6.1259018E1,3.477258E1,2.6486439E1,3.3538204E1,1.234375E0,2.9014555E1,4.5236483E0,2.7999434E1,1.015122E0,1.0494974E0,3.4741507E0,1.4477494E0,2.0264013E0,1.0204151E0,1.0059863E0],"tree_param":{"num_deleted":"0","num_feature":"20","num_nodes":"15","size_leaf_vector":"1"}},{"base_weights":[4.414452E-3,-7.3528886E-1,4.8884954E-2,-4.9608335E-2,-9.823206E-2,-4.04542E-2,2.3177534E-1,-3.3363912E-2,5.3779525E-1,-7.0026587E-3,7.6099277E-1,4.7334712E-2,9.832869E-3],"categories":[],"categories_nodes":[],"categories_segments":[],"categories_sizes":[],"default_left":[0,0,0,0,0,0,0,0,0,0,0,0,0],"id":61,"left_children":[1,3,-1,-1,5,-1,7,-1,9,-1,11,-1,-1],"loss_changes":[4.3421154E1,5.5109177E0,0E0,0E0,2.7581265E0,0E0,2.631712E0,0E0,1.1228147E0,0E0,3.5966897E-1,0E0,0E0],"parents":[2147483647,0,0,1,1,4,4,6,6,8,8,10,10],"right_children":[2,4,-1,-1,6,-1,8,-1,10,-1,12,-1,-1],"split_conditions":[8.450704E-2,6.1728396E-2,4.8884954E-2,-4.9608335E-2,6.5E-1,-4.04542E-2,6.88E-1,-3.3363912E-2,3.401624E-2,-7.0026587E-3,9.271661E-3,4.7334712E-2,9.832869E-3],"split_indices":[6,6,0,0,5,0,7,0,1,0,2,0,0],"split_type":[0,0,0,0,0,0,0,0,0,0,0,0,0],"sum_hessian":[5.831349E1,3.3271465E1,2.5042025E1,2.3313454E1,9.958013E0,2.6969461E0,7.261067E0,1.5441154E0,5.7169514E0,1.508418E0,4.2085333E0,2.656757E0,1.5517762E0],"tree_param":{"num_deleted":"0","num_feature":"20","num_nodes":"13","size_leaf_vector":"1"}},{"base_weights":[1.9237686E-2,-7.1076024E-1,4.8783563E-2,-4.944244E-2,-3.7320927E-2,-4.0321317E-2,3.176101E-1,-2.7423585E-2,5.804906E-1,7.289908E-1,-4.285582E-3,4.4297446E-2,1.4282512E-3],"categories":[],"categories_nodes":[],"categories_segments":[],"categories_sizes":[],"default_left":[0,0,0,0,0,0,0,0,0,0,0,0,0],"id":62,"left_children":[1,3,-1,-1,5,-1,7,-1,9,11,-1,-1,-1],"loss_changes":[4.066299E1,6.1516743E0,0E0,0E0,3.1761522E0,0E0,2.1481254E0,0E0,7.2048354E-1,5.8418274E-1,0E0,0E0,0E0],"parents":[2147483647,0,0,1,1,4,4,6,6,8,8,9,9],"right_children":[2,4,-1,-1,6,-1,8,-1,10,12,-1,-1,-1],"split_conditions":[8.450704E-2,6.1728396E-2,4.8783563E-2,-4.944244E-2,6.5E-1,-4.0321317E-2,7.2095226E-3,-2.7423585E-2,2.655E-1,3.7649864E-1,-4.285582E-3,4.4297446E-2,1.4282512E-3],"split_indices":[6,6,0,0,5,0,0,0,9,19,0,0,0],"split_type":[0,0,0,0,0,0,0,0,0,0,0,0,0],"sum_hessian":[5.624697E1,3.2045277E1,2.4201694E1,2.2348415E1,9.696863E0,2.660254E0,7.0366087E0,1.3855163E0,5.6510925E0,4.5439677E0,1.1071247E0,3.4957378E0,1.04823E0],"tree_param":{"num_deleted":"0","num_feature":"20","num_nodes":"13","size_leaf_vector":"1"}},{"base_weights":[-1.5407384E-2,-7.415582E-1,4.8627485E-2,-8.302284E-1,3.13548E-2,-4.8852902E-2,-5.484468E-1,-4.4080436E-2,-2.0883717E-1,3.0248928E-1,-6.180246E-1,2.9630078E-2,-5.8317794E-3,-6.624819E-3,-3.809221E-2],"categories":[],"categories_nodes":[],"categories_segments":[],"categories_sizes":[],"default_left":[0,0,0,0,0,0,0,0,0,0,0,0,0,0,0],"id":63,"left_children":[1,3,-1,5,-1,-1,7,-1,9,11,13,-1,-1,-1,-1],"loss_changes":[3.9494045E1,4.369854E0,0E0,7.1437836E-1,0E0,0E0,1.2450724E0,0E0,1.7698855E0,5.5968165E-1,2.1546173E-1,0E0,0E0,0E0,0E0],"parents":[2147483647,0,0,1,1,3,3,6,6,8,8,9,9,10,10],"right_children":[2,4,-1,6,-1,-1,8,-1,10,12,14,-1,-1,-1,-1],"split_conditions":[6E0,7.3E-1,4.8627485E-2,5E0,3.13548E-2,-4.8852902E-2,7.32E-1,-4.4080436E-2,-1.423E-1,2.9188565E-3,6.4E1,2.9630078E-2,-5.8317794E-3,-6.624819E-3,-3.809221E-2],"split_indices":[4,5,0,4,0,0,7,0,8,10,18,0,0,0,0],"split_type":[0,0,0,0,0,0,0,0,0,0,0,0,0,0,0],"sum_hessian":[5.3045902E1,3.0717712E1,2.232819E1,2.921817E1,1.4995425E0,1.7586723E1,1.1631447E1,5.065838E0,6.565609E0,3.03446E0,3.531149E0,1.5486231E0,1.4858369E0,1.2459956E0,2.2851534E0],"tree_param":{"num_deleted":"0","num_feature":"20","num_nodes":"15","size_leaf_vector":"1"}},{"base_weights":[-1.817169E-2,-7.5011295E-1,4.847985E-2,-4.910181E-2,-1.8065764E-1,-3.8059045E-2,1.0110261E-1,3.8384837E-1,-3.6604828E-1,-1.51916E-2,6.290287E-1,-2.838015E-2,-1.2782926E-3,-3.5917521E-3,4.4147387E-2],"categories":[],"categories_nodes":[],"categories_segments":[],"categories_sizes":[],"default_left":[0,0,0,0,0,0,0,0,0,0,0,0,0,0,0],"id":64,"left_children":[1,3,-1,-1,5,-1,7,9,11,-1,13,-1,-1,-1,-1],"loss_changes":[3.8337326E1,3.8432255E0,0E0,0E0,1.7185082E0,0E0,1.1495425E0,1.0758028E0,2.1828374E-1,0E0,8.097471E-1,0E0,0E0,0E0,0E0],"parents":[2147483647,0,0,1,1,4,4,6,6,7,7,8,8,10,10],"right_children":[2,4,-1,-1,6,-1,8,10,12,-1,14,-1,-1,-1,-1],"split_conditions":[8.450704E-2,6.1728396E-2,4.847985E-2,-4.910181E-2,6.5E-1,-3.8059045E-2,5.0087564E-2,1.1383961E0,2.6926523E-1,-1.51916E-2,3.5882577E-2,-2.838015E-2,-1.2782926E-3,-3.5917521E-3,4.4147387E-2],"split_indices":[6,6,0,0,5,0,2,15,19,0,1,0,0,0,0],"split_type":[0,0,0,0,0,0,0,0,0,0,0,0,0,0,0],"sum_hessian":[5.1020206E1,2.9443233E1,2.1576975E1,2.0407364E1,9.03587E0,2.3965762E0,6.6392927E0,4.2470574E0,2.3922355E0,1.0533656E0,3.193692E0,1.0836778E0,1.3085577E0,1.0400513E0,2.1536405E0],"tree_param":{"num_deleted":"0","num_feature":"20","num_nodes":"15","size_leaf_vector":"1"}},{"base_weights":[5.174507E-4,-8.1142014E-1,8.865717E-1,-4.8908487E-2,-2.3794839E-1,1.2717499E-1,4.8385166E-2,-5.7906526E-1,2.6602197E-2,-1.0835307E-2,1.7518276E-2,-2.394117E-4,-3.5808906E-2],"categories":[],"categories_nodes":[],"categories_segments":[],"categories_sizes":[],"default_left":[0,0,0,0,0,0,0,0,0,0,0,0,0],"id":65,"left_children":[1,3,5,-1,7,9,-1,11,-1,-1,-1,-1,-1],"loss_changes":[3.6848705E1,2.3231583E0,1.3859024E0,0E0,2.2366529E0,3.4573424E-1,0E0,4.3493307E-1,0E0,0E0,0E0,0E0,0E0],"parents":[2147483647,0,0,1,1,2,2,4,4,5,5,7,7],"right_children":[2,4,6,-1,8,10,-1,12,-1,-1,-1,-1,-1],"split_conditions":[7.936508E-2,6.1728396E-2,8.450704E-2,-4.8908487E-2,7.1E-1,9.94E-1,4.8385166E-2,1.7561081E-1,2.6602197E-2,-1.0835307E-2,1.7518276E-2,-2.394117E-4,-3.5808906E-2],"split_indices":[6,6,6,0,5,7,0,19,0,0,0,0,0],"split_type":[0,0,0,0,0,0,0,0,0,0,0,0,0],"sum_hessian":[4.922002E1,2.5728182E1,2.3491838E1,1.9385672E1,6.3425107E0,2.5153656E0,2.0976473E1,4.567158E0,1.7753524E0,1.0014435E0,1.5139221E0,1.0797416E0,3.4874167E0],"tree_param":{"num_deleted":"0","num_feature":"20","num_nodes":"13","size_leaf_vector":"1"}},{"base_weights":[-2.8290728E-2,-7.453304E-1,4.8242204E-2,-8.343994E-1,3.0538639E-2,-4.8858356E-2,-3.8319352E-1,1.0904702E-2,-5.781265E-1,-5.6582377E-3,-7.217265E-1,-4.401513E-2,-4.166366E-3],"categories":[],"categories_nodes":[],"categories_segments":[],"categories_sizes":[],"default_left":[0,0,0,0,0,0,0,0,0,0,0,0,0],"id":66,"left_children":[1,3,-1,5,-1,-1,7,-1,9,-1,11,-1,-1],"loss_changes":[3.5577507E1,4.01132E0,0E0,1.4051933E0,0E0,0E0,1.097232E0,0E0,3.543849E-1,0E0,4.1296673E-1,0E0,0E0],"parents":[2147483647,0,0,1,1,3,3,6,6,8,8,10,10],"right_children":[2,4,-1,6,-1,-1,8,-1,10,-1,12,-1,-1],"split_conditions":[8.450704E-2,7.3E-1,4.8242204E-2,6.4935066E-2,3.0538639E-2,-4.8858356E-2,2.0401125E-1,1.0904702E-2,-7.841296E-2,-5.6582377E-3,7.355875E-1,-4.401513E-2,-4.166366E-3],"split_indices":[6,5,0,6,0,0,19,0,10,0,13,0,0],"split_type":[0,0,0,0,0,0,0,0,0,0,0,0,0],"sum_hessian":[4.795035E1,2.7990692E1,1.995966E1,2.6626564E1,1.3641276E0,1.9341099E1,7.2854652E0,1.7545598E0,5.5309057E0,1.7270273E0,3.8038783E0,2.7434847E0,1.0603936E0],"tree_param":{"num_deleted":"0","num_feature":"20","num_nodes":"13","size_leaf_vector":"1"}},{"base_weights":[-3.6793826E-3,-6.8502307E-1,4.8143648E-2,-7.6399565E-1,2.8810019E-2,-4.812152E-2,-4.3528867E-1,-4.2378888E-2,-1.0653829E-1,2.686936E-1,-5.999541E-1,-1.7895447E-2,3.1016475E-2,-9.335226E-3,-3.4357794E-2],"categories":[],"categories_nodes":[],"categories_segments":[],"categories_sizes":[],"default_left":[0,0,0,0,0,0,0,0,0,0,0,0,0,0,0],"id":67,"left_children":[1,3,-1,5,-1,-1,7,-1,9,11,13,-1,-1,-1,-1],"loss_changes":[3.1689405E1,3.2510662E0,0E0,1.3413944E0,0E0,0E0,1.534138E0,0E0,1.6075159E0,1.3518984E0,4.454255E-3,0E0,0E0,0E0,0E0],"parents":[2147483647,0,0,1,1,3,3,6,6,8,8,9,9,10,10],"right_children":[2,4,-1,6,-1,-1,8,-1,10,12,14,-1,-1,-1,-1],"split_conditions":[6E0,7.3E-1,4.8143648E-2,5E0,2.8810019E-2,-4.812152E-2,7.557596E-3,-4.2378888E-2,-1.423E-1,-2.204E-1,5.0777036E-1,-1.7895447E-2,3.1016475E-2,-9.335226E-3,-3.4357794E-2],"split_indices":[4,5,0,4,0,0,0,0,8,8,13,0,0,0,0],"split_type":[0,0,0,0,0,0,0,0,0,0,0,0,0,0,0],"sum_hessian":[4.611808E1,2.722081E1,1.8897268E1,2.5987804E1,1.2330066E0,1.5002892E1,1.0984913E1,4.173147E0,6.811765E0,4.127974E0,2.6837912E0,1.4774218E0,2.6505523E0,1.0149587E0,1.6688324E0],"tree_param":{"num_deleted":"0","num_feature":"20","num_nodes":"15","size_leaf_vector":"1"}},{"base_weights":[-6.4171497E-3,-6.772452E-1,4.7960386E-2,-4.8434973E-2,-9.906767E-2,-4.1528141E-1,4.4730026E-1,-3.7630346E-2,-1.0554149E-1,3.3686288E-2,-6.080299E-3,-3.2480836E-2,2.4577965E-1,3.145949E-2,-1.7832225E-2],"categories":[],"categories_nodes":[],"categories_segments":[],"categories_sizes":[],"default_left":[0,0,0,0,0,0,0,0,0,0,0,0,0,0,0],"id":68,"left_children":[1,3,-1,-1,5,7,9,-1,11,-1,-1,-1,13,-1,-1],"loss_changes":[3.0300428E1,4.5542946E0,0E0,0E0,1.9760957E0,6.6055477E-1,6.3329154E-1,0E0,1.0877196E0,0E0,0E0,0E0,1.0734012E0,0E0,0E0],"parents":[2147483647,0,0,1,1,4,4,5,5,6,6,8,8,12,12],"right_children":[2,4,-1,-1,6,8,10,-1,12,-1,-1,-1,14,-1,-1],"split_conditions":[8.450704E-2,6.1728396E-2,4.7960386E-2,-4.8434973E-2,7.1E-1,3.5486396E-2,1.289147E-1,-3.7630346E-2,1.171642E0,3.3686288E-2,-6.080299E-3,-3.2480836E-2,2.659077E-2,3.145949E-2,-1.7832225E-2],"split_indices":[6,6,0,0,5,1,2,0,15,0,0,0,2,0,0],"split_type":[0,0,0,0,0,0,0,0,0,0,0,0,0,0,0],"sum_hessian":[4.477379E1,2.6595976E1,1.817781E1,1.7233356E1,9.362619E0,6.0823474E0,3.280272E0,2.2270994E0,3.8552482E0,2.2146077E0,1.0656643E0,1.1795162E0,2.675732E0,1.6079375E0,1.0677944E0],"tree_param":{"num_deleted":"0","num_feature":"20","num_nodes":"15","size_leaf_vector":"1"}},{"base_weights":[1.4010706E-2,-6.3163686E-1,4.7803055E-2,-4.8208654E-2,-2.6537498E-2,-3.7400033E-2,2.5036559E-1,-1.9121012E-2,4.3234432E-1,6.5747535E-1,-2.142948E-2,1.4503872E-3,4.518159E-2],"categories":[],"categories_nodes":[],"categories_segments":[],"categories_sizes":[],"default_left":[0,0,0,0,0,0,0,0,0,0,0,0,0],"id":69,"left_children":[1,3,-1,-1,5,-1,7,-1,9,11,-1,-1,-1],"loss_changes":[2.7331789E1,5.3420506E0,0E0,0E0,2.282714E0,0E0,1.1244539E0,0E0,1.6265475E0,8.856766E-1,0E0,0E0,0E0],"parents":[2147483647,0,0,1,1,4,4,6,6,8,8,9,9],"right_children":[2,4,-1,-1,6,-1,8,-1,10,12,-1,-1,-1],"split_conditions":[8.450704E-2,6.1728396E-2,4.7803055E-2,-4.8208654E-2,6.5E-1,-3.7400033E-2,4.4956976E-1,-1.9121012E-2,3.0171427E-1,6.9E-1,-2.142948E-2,1.4503872E-3,4.518159E-2],"split_indices":[6,6,0,0,5,0,16,0,9,5,0,0,0],"split_type":[0,0,0,0,0,0,0,0,0,0,0,0,0],"sum_hessian":[4.2943565E1,2.56758E1,1.7267767E1,1.618682E1,9.488981E0,2.1599596E0,7.329022E0,1.3909353E0,5.938087E0,4.894513E0,1.0435739E0,1.692133E0,3.20238E0],"tree_param":{"num_deleted":"0","num_feature":"20","num_nodes":"13","size_leaf_vector":"1"}},{"base_weights":[-1.576752E-2,-6.9452345E-1,4.769196E-2,-8.728373E-1,1.12009294E-1,-2.6789737E-1,-4.6473157E-2,-3.020156E-2,4.7925863E-1,-2.6831988E-2,6.6302917E-3,-7.5313984E-3,3.6383968E-2],"categories":[],"categories_nodes":[],"categories_segments":[],"categories_sizes":[],"default_left":[0,0,0,0,0,0,0,0,0,0,0,0,0],"id":70,"left_children":[1,3,-1,5,7,9,-1,-1,11,-1,-1,-1,-1],"loss_changes":[2.8296846E1,3.7331295E0,0E0,4.6401787E-1,1.7260718E0,4.141386E-1,0E0,0E0,7.6189405E-1,0E0,0E0,0E0,0E0],"parents":[2147483647,0,0,1,1,3,3,4,4,5,5,8,8],"right_children":[2,4,-1,6,8,10,-1,-1,12,-1,-1,-1,-1],"split_conditions":[8.450704E-2,7.1E-1,4.769196E-2,1.4106806E-1,7.35E-1,5.263158E-2,-4.6473157E-2,-3.020156E-2,2.3966801E-1,-2.6831988E-2,6.6302917E-3,-7.5313984E-3,3.6383968E-2],"split_indices":[6,5,0,19,7,6,0,0,19,0,0,0,0],"split_type":[0,0,0,0,0,0,0,0,0,0,0,0,0],"sum_hessian":[4.0989483E1,2.4277885E1,1.6711596E1,1.9814869E1,4.463018E0,2.1865654E0,1.7628304E1,1.2944443E0,3.1685736E0,1.1051098E0,1.0814555E0,1.0075425E0,2.161031E0],"tree_param":{"num_deleted":"0","num_feature":"20","num_nodes":"13","size_leaf_vector":"1"}},{"base_weights":[-9.327274E-3,-6.679549E-1,4.7533352E-2,-4.6969768E-2,-8.958158E-2,-3.5824165E-2,1.7653751E-1,5.103056E-1,-2.2314355E-2,3.503215E-2,-2.1269727E-3],"categories":[],"categories_nodes":[],"categories_segments":[],"categories_sizes":[],"default_left":[0,0,0,0,0,0,0,0,0,0,0],"id":71,"left_children":[1,3,-1,-1,5,-1,7,9,-1,-1,-1],"loss_changes":[2.6283504E1,3.785163E0,0E0,0E0,1.624244E0,0E0,1.7046577E0,5.656532E-1,0E0,0E0,0E0],"parents":[2147483647,0,0,1,1,4,4,6,6,7,7],"right_children":[2,4,-1,-1,6,-1,8,10,-1,-1,-1],"split_conditions":[8.450704E-2,6.4935066E-2,4.7533352E-2,-4.6969768E-2,6.5E-1,-3.5824165E-2,8.300114E-2,8.491669E-2,-2.2314355E-2,3.503215E-2,-2.1269727E-3],"split_indices":[6,6,0,0,5,0,2,10,0,0,0],"split_type":[0,0,0,0,0,0,0,0,0,0,0],"sum_hessian":[3.9565178E1,2.3646278E1,1.59189005E1,1.5668557E1,7.977721E0,1.8730357E0,6.104686E0,4.0923033E0,2.0123823E0,2.8453467E0,1.2469568E0],"tree_param":{"num_deleted":"0","num_feature":"20","num_nodes":"11","size_leaf_vector":"1"}},{"base_weights":[2.109085E-3,-7.3655003E-1,8.263435E-1,-4.7668826E-2,-1.598562E-1,9.119836E-2,4.7368888E-2,-3.8212076E-1,1.8312817E-2,2.1742634E-2,-1.8041458E-2,3.274981E-4,-3.0644858E-2],"categories":[],"categories_nodes":[],"categories_segments":[],"categories_sizes":[],"default_left":[0,0,0,0,0,0,0,0,0,0,0,0,0],"id":72,"left_children":[1,3,5,-1,7,9,-1,11,-1,-1,-1,-1,-1],"loss_changes":[2.4398844E1,2.4905195E0,1.5987692E0,0E0,9.5579886E-1,7.4469817E-1,0E0,4.878484E-1,0E0,0E0,0E0,0E0,0E0],"parents":[2147483647,0,0,1,1,2,2,4,4,5,5,7,7],"right_children":[2,4,6,-1,8,10,-1,12,-1,-1,-1,-1,-1],"split_conditions":[7.936508E-2,6.1728396E-2,8.450704E-2,-4.7668826E-2,7.1E-1,5.0087564E-2,4.7368888E-2,7E0,1.8312817E-2,2.1742634E-2,-1.8041458E-2,3.274981E-4,-3.0644858E-2],"split_indices":[6,6,6,0,5,2,0,11,0,0,0,0,0],"split_type":[0,0,0,0,0,0,0,0,0,0,0,0,0],"sum_hessian":[3.8075394E1,2.0136198E1,1.7939196E1,1.4159359E1,5.9768386E0,2.783868E0,1.5155327E1,4.3941507E0,1.582688E0,1.6031028E0,1.1807653E0,1.9990289E0,2.3951216E0],"tree_param":{"num_deleted":"0","num_feature":"20","num_nodes":"13","size_leaf_vector":"1"}},{"base_weights":[-1.08699305E-2,-6.3533425E-1,4.7142636E-2,-4.74984E-2,-8.467272E-2,-4.0215075E-1,4.3190736E-1,-3.665557E-2,-8.344202E-2,3.33465E-2,-6.931647E-3,-3.0274669E-2,2.5186235E-1,2.859207E-2,-7.4027516E-3],"categories":[],"categories_nodes":[],"categories_segments":[],"categories_sizes":[],"default_left":[0,0,0,0,0,0,0,0,0,0,0,0,0,0,0],"id":73,"left_children":[1,3,-1,-1,5,7,9,-1,11,-1,-1,-1,13,-1,-1],"loss_changes":[2.2810375E1,3.9278727E0,0E0,0E0,1.7333758E0,6.147429E-1,6.4251006E-1,0E0,9.214535E-1,0E0,0E0,0E0,5.1732475E-1,0E0,0E0],"parents":[2147483647,0,0,1,1,4,4,5,5,6,6,8,8,12,12],"right_children":[2,4,-1,-1,6,8,10,-1,12,-1,-1,-1,14,-1,-1],"split_conditions":[8.450704E-2,6.1728396E-2,4.7142636E-2,-4.74984E-2,7.1E-1,5.8943915E-1,4.5133363E-2,-3.665557E-2,1.2364414E0,3.33465E-2,-6.931647E-3,-3.0274669E-2,6.338353E-1,2.859207E-2,-7.4027516E-3],"split_indices":[6,6,0,0,5,13,1,0,15,0,0,0,13,0,0],"split_type":[0,0,0,0,0,0,0,0,0,0,0,0,0,0,0],"sum_hessian":[3.6294533E1,2.2135088E1,1.4159446E1,1.3624985E1,8.510103E0,5.407992E0,3.1021118E0,2.015135E0,3.3928568E0,2.0774171E0,1.0246948E0,1.0117747E0,2.381082E0,1.0839229E0,1.2971593E0],"tree_param":{"num_deleted":"0","num_feature":"20","num_nodes":"15","size_leaf_vector":"1"}},{"base_weights":[-3.3605583E-2,-6.7677814E-1,4.7006268E-2,-4.7269356E-2,-2.004164E-1,-3.6880795E-2,6.96338E-2,3.024922E-1,-3.3215597E-2,-1.3004812E-2,4.8387846E-1,6.291139E-4,3.477893E-2],"categories":[],"categories_nodes":[],"categories_segments":[],"categories_sizes":[],"default_left":[0,0,0,0,0,0,0,0,0,0,0,0,0],"id":74,"left_children":[1,3,-1,-1,5,-1,7,9,-1,-1,11,-1,-1],"loss_changes":[2.3036404E1,2.641036E0,0E0,0E0,1.392555E0,0E0,1.4085766E0,7.433638E-1,0E0,0E0,4.8268712E-1,0E0,0E0],"parents":[2147483647,0,0,1,1,4,4,6,6,7,7,10,10],"right_children":[2,4,-1,-1,6,-1,8,10,-1,-1,12,-1,-1],"split_conditions":[8.450704E-2,6.1728396E-2,4.7006268E-2,-4.7269356E-2,7.35E-1,-3.6880795E-2,1.502E0,3.238872E-2,-3.3215597E-2,-1.3004812E-2,1.3591106E0,6.291139E-4,3.477893E-2],"split_indices":[6,6,0,0,7,0,7,1,0,0,15,0,0],"split_type":[0,0,0,0,0,0,0,0,0,0,0,0,0],"sum_hessian":[3.4767155E1,2.1121115E1,1.3646038E1,1.2876031E1,8.245085E0,2.1790297E0,6.066055E0,5.0512905E0,1.0147644E0,1.1257434E0,3.9255471E0,1.5451347E0,2.3804123E0],"tree_param":{"num_deleted":"0","num_feature":"20","num_nodes":"13","size_leaf_vector":"1"}},{"base_weights":[5.9070736E-3,-6.275336E-1,4.6952453E-2,-4.7104478E-2,-5.0812684E-2,-3.408294E-2,2.3300621E-1,-2.4963351E-2,5.8843744E-1,3.880338E-2,6.39288E-3],"categories":[],"categories_nodes":[],"categories_segments":[],"categories_sizes":[],"default_left":[0,0,0,0,0,0,0,0,0,0,0],"id":75,"left_children":[1,3,-1,-1,5,-1,7,-1,9,-1,-1],"loss_changes":[2.0663504E1,3.7306767E0,0E0,0E0,1.6642522E0,0E0,1.9970846E0,0E0,3.2118356E-1,0E0,0E0],"parents":[2147483647,0,0,1,1,4,4,6,6,8,8],"right_children":[2,4,-1,-1,6,-1,8,-1,10,-1,-1],"split_conditions":[6E0,6.1728396E-2,4.6952453E-2,-4.7104478E-2,7.26E-1,-3.408294E-2,3.401624E-2,-2.4963351E-2,5.8515863E-3,3.880338E-2,6.39288E-3],"split_indices":[4,6,0,0,7,0,1,0,10,0,0],"split_type":[0,0,0,0,0,0,0,0,0,0,0],"sum_hessian":[3.2961353E1,1.9828657E1,1.3132696E1,1.2420644E1,7.4080133E0,1.8637362E0,5.544277E0,1.6794761E0,3.8648012E0,2.2593942E0,1.605407E0],"tree_param":{"num_deleted":"0","num_feature":"20","num_nodes":"11","size_leaf_vector":"1"}},{"base_weights":[1.5514717E-2,-4.561462E-2,6.0299486E-1,-3.2413837E-2,7.3625684E-1,2.70027E-1,4.6625957E-2,-2.7638812E-2,4.9741763E-1,7.141752E-1,-1.43609075E-2,4.3468677E-2,4.42992E-3],"categories":[],"categories_nodes":[],"categories_segments":[],"categories_sizes":[],"default_left":[0,0,0,0,0,0,0,0,0,0,0,0,0],"id":76,"left_children":[1,-1,3,-1,5,7,-1,-1,9,11,-1,-1,-1],"loss_changes":[1.876847E1,0E0,3.9902415E0,0E0,1.5332394E0,1.6195946E0,0E0,0E0,1.2522898E0,4.192078E-1,0E0,0E0,0E0],"parents":[2147483647,0,0,2,2,4,4,5,5,8,8,9,9],"right_children":[2,-1,4,-1,6,8,-1,-1,10,12,-1,-1,-1],"split_conditions":[6.4935066E-2,-4.561462E-2,6.5E-1,-3.2413837E-2,8.450704E-2,6.61E-1,4.6625957E-2,-2.7638812E-2,1.5085998E0,-1.408E-1,-1.43609075E-2,4.3468677E-2,4.42992E-3],"split_indices":[6,0,5,0,6,7,0,0,16,8,0,0,0],"split_type":[0,0,0,0,0,0,0,0,0,0,0,0,0],"sum_hessian":[3.2424004E1,1.23565E1,2.0067505E1,1.5595297E0,1.8507975E1,6.1868005E0,1.2321175E1,1.0297478E0,5.157053E0,4.1111403E0,1.0459124E0,2.9817002E0,1.1294402E0],"tree_param":{"num_deleted":"0","num_feature":"20","num_nodes":"13","size_leaf_vector":"1"}},{"base_weights":[8.362749E-4,-7.084222E-1,8.114872E-1,-4.5757648E-2,-8.876702E-2,8.99573E-2,4.652899E-2,-4.5997494E-1,3.5328054E-1,-1.7549992E-2,2.2367643E-2,-3.1951972E-4,-3.2879446E-2,-1.2097139E-3,2.7882645E-2],"categories":[],"categories_nodes":[],"categories_segments":[],"categories_sizes":[],"default_left":[0,0,0,0,0,0,0,0,0,0,0,0,0,0,0],"id":77,"left_children":[1,3,5,-1,7,9,-1,11,13,-1,-1,-1,-1,-1,-1],"loss_changes":[1.8881002E1,2.1625109E0,1.2330236E0,0E0,1.0632148E0,6.736101E-1,0E0,3.0217052E-1,2.5041157E-1,0E0,0E0,0E0,0E0,0E0,0E0],"parents":[2147483647,0,0,1,1,2,2,4,4,5,5,7,7,8,8],"right_children":[2,4,6,-1,8,10,-1,12,14,-1,-1,-1,-1,-1,-1],"split_conditions":[7.936508E-2,6.4935066E-2,8.450704E-2,-4.5757648E-2,6.9E-1,7.1E-1,4.652899E-2,-2.084E-1,3.2560974E-1,-1.7549992E-2,2.2367643E-2,-3.1951972E-4,-3.2879446E-2,-1.2097139E-3,2.7882645E-2],"split_indices":[6,6,6,0,5,5,0,8,19,0,0,0,0,0,0],"split_type":[0,0,0,0,0,0,0,0,0,0,0,0,0,0,0],"sum_hessian":[3.0838903E1,1.6515337E1,1.4323567E1,1.2026239E1,4.4890966E0,2.2779315E0,1.2045636E1,2.4180186E0,2.071078E0,1.0277642E0,1.2501674E0,1.0470519E0,1.3709668E0,1.0371267E0,1.0339514E0],"tree_param":{"num_deleted":"0","num_feature":"20","num_nodes":"15","size_leaf_vector":"1"}},{"base_weights":[-2.0329727E-2,-6.089523E-1,4.6377555E-2,-7.0291644E-1,2.6980866E-2,-8.3618015E-1,-1.6905037E-1,-5.6026033E-3,-8.820737E-1,1.7859553E-1,-2.7337933E-2,-4.5957983E-2,-1.2676909E-2,2.173712E-2,-5.788998E-3],"categories":[],"categories_nodes":[],"categories_segments":[],"categories_sizes":[],"default_left":[0,0,0,0,0,0,0,0,0,0,0,0,0,0,0],"id":78,"left_children":[1,3,-1,5,-1,7,9,-1,11,13,-1,-1,-1,-1,-1],"loss_changes":[1.7891619E1,2.5120592E0,0E0,1.1891556E0,0E0,3.900938E-1,7.527657E-1,0E0,8.60672E-2,3.030666E-1,0E0,0E0,0E0,0E0,0E0],"parents":[2147483647,0,0,1,1,3,3,5,5,6,6,8,8,9,9],"right_children":[2,4,-1,6,-1,8,10,-1,12,14,-1,-1,-1,-1,-1],"split_conditions":[6E0,7.3E-1,4.6377555E-2,1.2407453E-2,2.6980866E-2,1.8780547E-1,5.1990096E-2,-5.6026033E-3,4.169507E-1,2.1976459E-1,-2.7337933E-2,-4.5957983E-2,-1.2676909E-2,2.173712E-2,-5.788998E-3],"split_indices":[4,5,0,0,0,14,2,0,14,19,0,0,0,0,0],"split_type":[0,0,0,0,0,0,0,0,0,0,0,0,0,0,0],"sum_hessian":[3.0054699E1,1.876156E1,1.12931385E1,1.770142E1,1.0601411E0,1.3712285E1,3.9891353E0,1.0223761E0,1.2689909E1,2.351737E0,1.6373984E0,1.1546253E1,1.1436551E0,1.0025512E0,1.3491857E0],"tree_param":{"num_deleted":"0","num_feature":"20","num_nodes":"15","size_leaf_vector":"1"}},{"base_weights":[-1.2695344E-2,-6.767862E-1,8.036588E-1,-4.5695003E-2,-1.2682424E-1,1.0485937E-1,4.6099972E-2,-4.386648E-1,3.149173E-1,-1.0264103E-2,1.7921148E-2,-3.5383545E-2,1.5496811E-3,-1.6779908E-3,2.5234848E-2],"categories":[],"categories_nodes":[],"categories_segments":[],"categories_sizes":[],"default_left":[0,0,0,0,0,0,0,0,0,0,0,0,0,0,0],"id":79,"left_children":[1,3,5,-1,7,9,-1,11,13,-1,-1,-1,-1,-1,-1],"loss_changes":[1.6879711E1,2.121643E0,1.0589037E0,0E0,1.0101646E0,3.214572E-1,0E0,5.435527E-1,2.2867617E-1,0E0,0E0,0E0,0E0,0E0,0E0],"parents":[2147483647,0,0,1,1,2,2,4,4,5,5,7,7,8,8],"right_children":[2,4,6,-1,8,10,-1,12,14,-1,-1,-1,-1,-1,-1],"split_conditions":[7.936508E-2,6.349207E-2,8.450704E-2,-4.5695003E-2,6.9E-1,1.5853846E-1,4.6099972E-2,2.9573873E-1,1.4934517E0,-1.0264103E-2,1.7921148E-2,-3.5383545E-2,1.5496811E-3,-1.6779908E-3,2.5234848E-2],"split_indices":[6,6,6,0,5,9,0,14,15,0,0,0,0,0,0],"split_type":[0,0,0,0,0,0,0,0,0,0,0,0,0,0,0],"sum_hessian":[2.9132456E1,1.6158634E1,1.2973822E1,1.0828303E1,5.330331E0,2.1520545E0,1.0821767E1,3.128664E0,2.2016666E0,1.0536791E0,1.0983753E0,1.6670504E0,1.4616138E0,1.0665011E0,1.1351655E0],"tree_param":{"num_deleted":"0","num_feature":"20","num_nodes":"15","size_leaf_vector":"1"}},{"base_weights":[1.7567886E-2,-4.802972E-1,4.5927446E-2,-4.532204E-2,-1.4969753E-1,-3.9638694E-2,1.7934608E-1,3.716165E-1,-2.8108096E-2,5.7730657E-1,-8.8084815E-3,4.3702284E-3,3.4367453E-2],"categories":[],"categories_nodes":[],"categories_segments":[],"categories_sizes":[],"default_left":[0,0,0,0,0,0,0,0,0,0,0,0,0],"id":80,"left_children":[1,3,-1,-1,5,-1,7,9,-1,11,-1,-1,-1],"loss_changes":[1.3693277E1,2.6376E0,0E0,0E0,2.7412758E0,0E0,1.4836257E0,9.6952176E-1,0E0,2.543944E-1,0E0,0E0,0E0],"parents":[2147483647,0,0,1,1,4,4,6,6,7,7,9,9],"right_children":[2,4,-1,-1,6,-1,8,10,-1,12,-1,-1,-1],"split_conditions":[7.3E-1,6.5E-1,4.5927446E-2,-4.532204E-2,7.32E-1,-3.9638694E-2,8.1E1,9.011688E-2,-2.8108096E-2,3.5486396E-2,-8.8084815E-3,4.3702284E-3,3.4367453E-2],"split_indices":[5,5,0,0,7,0,18,2,0,1,0,0,0],"split_type":[0,0,0,0,0,0,0,0,0,0,0,0,0],"sum_hessian":[2.854319E1,1.8685083E1,9.858106E0,7.4020376E0,1.1283047E1,3.3420606E0,7.9409857E0,6.702014E0,1.2389718E0,4.833265E0,1.8687491E0,1.2156321E0,3.6176326E0],"tree_param":{"num_deleted":"0","num_feature":"20","num_nodes":"13","size_leaf_vector":"1"}},{"base_weights":[-4.3995474E-3,-6.9856423E-1,7.645022E-1,-4.5907494E-2,-1.515828E-1,1.111669E-1,4.5740966E-2,-2.9332975E-2,1.9721344E-1,2.4091948E-2,-1.39611205E-2,-1.4180384E-2,2.7892161E-2],"categories":[],"categories_nodes":[],"categories_segments":[],"categories_sizes":[],"default_left":[0,0,0,0,0,0,0,0,0,0,0,0,0],"id":81,"left_children":[1,3,5,-1,7,9,-1,-1,11,-1,-1,-1,-1],"loss_changes":[1.5365785E1,1.6776347E0,1.2399898E0,0E0,9.5500183E-1,6.6903585E-1,0E0,0E0,8.2027066E-1,0E0,0E0,0E0,0E0],"parents":[2147483647,0,0,1,1,2,2,4,4,5,5,8,8],"right_children":[2,4,6,-1,8,10,-1,-1,12,-1,-1,-1,-1],"split_conditions":[7.692308E-2,6.1728396E-2,8.450704E-2,-4.5907494E-2,2.6044473E-1,-3.992062E-3,4.5740966E-2,-2.9332975E-2,4.01988E-2,2.4091948E-2,-1.39611205E-2,-1.4180384E-2,2.7892161E-2],"split_indices":[6,6,6,0,14,2,0,0,1,0,0,0,0],"split_type":[0,0,0,0,0,0,0,0,0,0,0,0,0],"sum_hessian":[2.6788076E1,1.4126314E1,1.2661761E1,9.59559E0,4.5307245E0,2.6936557E0,9.968105E0,1.712569E0,2.8181555E0,1.2615603E0,1.4320954E0,1.2993424E0,1.5188131E0],"tree_param":{"num_deleted":"0","num_feature":"20","num_nodes":"13","size_leaf_vector":"1"}},{"base_weights":[-1.380518E-2,-5.80649E-1,4.5629933E-2,-4.5703493E-2,-1.0088706E-1,-3.3322524E-2,1.4555137E-1,3.6917084E-1,-1.7008122E-2,-7.386791E-3,3.4912415E-2],"categories":[],"categories_nodes":[],"categories_segments":[],"categories_sizes":[],"default_left":[0,0,0,0,0,0,0,0,0,0,0],"id":82,"left_children":[1,3,-1,-1,5,-1,7,9,-1,-1,-1],"loss_changes":[1.48493395E1,2.7116776E0,0E0,0E0,1.2553707E0,0E0,8.434639E-1,9.545785E-1,0E0,0E0,0E0],"parents":[2147483647,0,0,1,1,4,4,6,6,7,7],"right_children":[2,4,-1,-1,6,-1,8,10,-1,-1,-1],"split_conditions":[8.450704E-2,6.1728396E-2,4.5629933E-2,-4.5703493E-2,